digraph Tree {
node [shape=box, style="filled", color="black", fontname="helvetica"] ;
edge [fontname="helvetica"] ;
0 [label="national_inv <= 1.5\ngini = 0.305\nsamples = 40730\nvalue = [33067, 7663]\nclass = No", fillcolor="#eb9e67"] ;
1 [label="forecast_9_month <= 2.5\ngini = 0.494\nsamples = 7293\nvalue = [3244, 4049]\nclass = Yes", fillcolor="#d8ecfa"] ;
0 -> 1 [labeldistance=2.5, labelangle=45, headlabel="True"] ;
2 [label="forecast_9_month <= 0.5\ngini = 0.289\nsamples = 2070\nvalue = [1708, 362]\nclass = No", fillcolor="#eb9c63"] ;
1 -> 2 ;
3 [label="lead_time <= 4.5\ngini = 0.192\nsamples = 1542\nvalue = [1376, 166]\nclass = No", fillcolor="#e89051"] ;
2 -> 3 ;
4 [label="sales_3_month <= 1.5\ngini = 0.388\nsamples = 398\nvalue = [293, 105]\nclass = No", fillcolor="#eeae80"] ;
3 -> 4 ;
5 [label="perf_6_month_avg <= 0.635\ngini = 0.336\nsamples = 361\nvalue = [284, 77]\nclass = No", fillcolor="#eca36f"] ;
4 -> 5 ;
6 [label="in_transit_qty <= 1.5\ngini = 0.456\nsamples = 108\nvalue = [70, 38]\nclass = No", fillcolor="#f3c5a4"] ;
5 -> 6 ;
7 [label="ppap_risk_Yes <= 0.5\ngini = 0.486\nsamples = 91\nvalue = [53, 38]\nclass = No", fillcolor="#f8dbc7"] ;
6 -> 7 ;
8 [label="national_inv <= 0.5\ngini = 0.5\nsamples = 70\nvalue = [34, 36]\nclass = Yes", fillcolor="#f4fafe"] ;
7 -> 8 ;
9 [label="lead_time <= 1.0\ngini = 0.477\nsamples = 56\nvalue = [22, 34]\nclass = Yes", fillcolor="#b9dcf6"] ;
8 -> 9 ;
10 [label="gini = 0.0\nsamples = 6\nvalue = [6, 0]\nclass = No", fillcolor="#e58139"] ;
9 -> 10 ;
11 [label="perf_12_month_avg <= 0.345\ngini = 0.435\nsamples = 50\nvalue = [16, 34]\nclass = Yes", fillcolor="#96cbf1"] ;
9 -> 11 ;
12 [label="perf_12_month_avg <= 0.205\ngini = 0.499\nsamples = 23\nvalue = [11, 12]\nclass = Yes", fillcolor="#eff7fd"] ;
11 -> 12 ;
13 [label="in_transit_qty <= 0.5\ngini = 0.375\nsamples = 16\nvalue = [4, 12]\nclass = Yes", fillcolor="#7bbeee"] ;
12 -> 13 ;
14 [label="perf_12_month_avg <= -49.5\ngini = 0.245\nsamples = 14\nvalue = [2, 12]\nclass = Yes", fillcolor="#5aade9"] ;
13 -> 14 ;
15 [label="gini = 0.0\nsamples = 3\nvalue = [0, 3]\nclass = Yes", fillcolor="#399de5"] ;
14 -> 15 ;
16 [label="deck_risk_Yes <= 0.5\ngini = 0.298\nsamples = 11\nvalue = [2, 9]\nclass = Yes", fillcolor="#65b3eb"] ;
14 -> 16 ;
17 [label="perf_6_month_avg <= 0.23\ngini = 0.18\nsamples = 10\nvalue = [1, 9]\nclass = Yes", fillcolor="#4fa8e8"] ;
16 -> 17 ;
18 [label="gini = 0.0\nsamples = 4\nvalue = [0, 4]\nclass = Yes", fillcolor="#399de5"] ;
17 -> 18 ;
19 [label="gini = 0.278\nsamples = 6\nvalue = [1, 5]\nclass = Yes", fillcolor="#61b1ea"] ;
17 -> 19 ;
20 [label="gini = 0.0\nsamples = 1\nvalue = [1, 0]\nclass = No", fillcolor="#e58139"] ;
16 -> 20 ;
21 [label="gini = 0.0\nsamples = 2\nvalue = [2, 0]\nclass = No", fillcolor="#e58139"] ;
13 -> 21 ;
22 [label="gini = 0.0\nsamples = 7\nvalue = [7, 0]\nclass = No", fillcolor="#e58139"] ;
12 -> 22 ;
23 [label="min_bank <= 0.5\ngini = 0.302\nsamples = 27\nvalue = [5, 22]\nclass = Yes", fillcolor="#66b3eb"] ;
11 -> 23 ;
24 [label="perf_6_month_avg <= 0.565\ngini = 0.211\nsamples = 25\nvalue = [3, 22]\nclass = Yes", fillcolor="#54aae9"] ;
23 -> 24 ;
25 [label="perf_12_month_avg <= 0.38\ngini = 0.111\nsamples = 17\nvalue = [1, 16]\nclass = Yes", fillcolor="#45a3e7"] ;
24 -> 25 ;
26 [label="perf_12_month_avg <= 0.355\ngini = 0.198\nsamples = 9\nvalue = [1, 8]\nclass = Yes", fillcolor="#52a9e8"] ;
25 -> 26 ;
27 [label="gini = 0.0\nsamples = 2\nvalue = [0, 2]\nclass = Yes", fillcolor="#399de5"] ;
26 -> 27 ;
28 [label="perf_6_month_avg <= 0.395\ngini = 0.245\nsamples = 7\nvalue = [1, 6]\nclass = Yes", fillcolor="#5aade9"] ;
26 -> 28 ;
29 [label="gini = 0.0\nsamples = 2\nvalue = [0, 2]\nclass = Yes", fillcolor="#399de5"] ;
28 -> 29 ;
30 [label="gini = 0.32\nsamples = 5\nvalue = [1, 4]\nclass = Yes", fillcolor="#6ab6ec"] ;
28 -> 30 ;
31 [label="gini = 0.0\nsamples = 8\nvalue = [0, 8]\nclass = Yes", fillcolor="#399de5"] ;
25 -> 31 ;
32 [label="perf_12_month_avg <= 0.655\ngini = 0.375\nsamples = 8\nvalue = [2, 6]\nclass = Yes", fillcolor="#7bbeee"] ;
24 -> 32 ;
33 [label="gini = 0.0\nsamples = 1\nvalue = [1, 0]\nclass = No", fillcolor="#e58139"] ;
32 -> 33 ;
34 [label="perf_6_month_avg <= 0.595\ngini = 0.245\nsamples = 7\nvalue = [1, 6]\nclass = Yes", fillcolor="#5aade9"] ;
32 -> 34 ;
35 [label="perf_12_month_avg <= 0.695\ngini = 0.444\nsamples = 3\nvalue = [1, 2]\nclass = Yes", fillcolor="#9ccef2"] ;
34 -> 35 ;
36 [label="gini = 0.0\nsamples = 1\nvalue = [0, 1]\nclass = Yes", fillcolor="#399de5"] ;
35 -> 36 ;
37 [label="gini = 0.5\nsamples = 2\nvalue = [1, 1]\nclass = No", fillcolor="#ffffff"] ;
35 -> 37 ;
38 [label="gini = 0.0\nsamples = 4\nvalue = [0, 4]\nclass = Yes", fillcolor="#399de5"] ;
34 -> 38 ;
39 [label="gini = 0.0\nsamples = 2\nvalue = [2, 0]\nclass = No", fillcolor="#e58139"] ;
23 -> 39 ;
40 [label="perf_6_month_avg <= 0.375\ngini = 0.245\nsamples = 14\nvalue = [12, 2]\nclass = No", fillcolor="#e9965a"] ;
8 -> 40 ;
41 [label="gini = 0.0\nsamples = 6\nvalue = [6, 0]\nclass = No", fillcolor="#e58139"] ;
40 -> 41 ;
42 [label="perf_6_month_avg <= 0.4\ngini = 0.375\nsamples = 8\nvalue = [6, 2]\nclass = No", fillcolor="#eeab7b"] ;
40 -> 42 ;
43 [label="gini = 0.0\nsamples = 1\nvalue = [0, 1]\nclass = Yes", fillcolor="#399de5"] ;
42 -> 43 ;
44 [label="perf_12_month_avg <= 0.355\ngini = 0.245\nsamples = 7\nvalue = [6, 1]\nclass = No", fillcolor="#e9965a"] ;
42 -> 44 ;
45 [label="deck_risk_Yes <= 0.5\ngini = 0.444\nsamples = 3\nvalue = [2, 1]\nclass = No", fillcolor="#f2c09c"] ;
44 -> 45 ;
46 [label="gini = 0.5\nsamples = 2\nvalue = [1, 1]\nclass = No", fillcolor="#ffffff"] ;
45 -> 46 ;
47 [label="gini = 0.0\nsamples = 1\nvalue = [1, 0]\nclass = No", fillcolor="#e58139"] ;
45 -> 47 ;
48 [label="gini = 0.0\nsamples = 4\nvalue = [4, 0]\nclass = No", fillcolor="#e58139"] ;
44 -> 48 ;
49 [label="min_bank <= 0.5\ngini = 0.172\nsamples = 21\nvalue = [19, 2]\nclass = No", fillcolor="#e88e4e"] ;
7 -> 49 ;
50 [label="gini = 0.0\nsamples = 15\nvalue = [15, 0]\nclass = No", fillcolor="#e58139"] ;
49 -> 50 ;
51 [label="perf_12_month_avg <= -49.32\ngini = 0.444\nsamples = 6\nvalue = [4, 2]\nclass = No", fillcolor="#f2c09c"] ;
49 -> 51 ;
52 [label="gini = 0.5\nsamples = 4\nvalue = [2, 2]\nclass = No", fillcolor="#ffffff"] ;
51 -> 52 ;
53 [label="gini = 0.0\nsamples = 2\nvalue = [2, 0]\nclass = No", fillcolor="#e58139"] ;
51 -> 53 ;
54 [label="gini = 0.0\nsamples = 17\nvalue = [17, 0]\nclass = No", fillcolor="#e58139"] ;
6 -> 54 ;
55 [label="sales_3_month <= 0.5\ngini = 0.261\nsamples = 253\nvalue = [214, 39]\nclass = No", fillcolor="#ea985d"] ;
5 -> 55 ;
56 [label="perf_6_month_avg <= 0.935\ngini = 0.212\nsamples = 224\nvalue = [197, 27]\nclass = No", fillcolor="#e99254"] ;
55 -> 56 ;
57 [label="perf_6_month_avg <= 0.735\ngini = 0.089\nsamples = 150\nvalue = [143, 7]\nclass = No", fillcolor="#e68743"] ;
56 -> 57 ;
58 [label="perf_6_month_avg <= 0.715\ngini = 0.153\nsamples = 84\nvalue = [77, 7]\nclass = No", fillcolor="#e78c4b"] ;
57 -> 58 ;
59 [label="gini = 0.0\nsamples = 17\nvalue = [17, 0]\nclass = No", fillcolor="#e58139"] ;
58 -> 59 ;
60 [label="lead_time <= 3.0\ngini = 0.187\nsamples = 67\nvalue = [60, 7]\nclass = No", fillcolor="#e89050"] ;
58 -> 60 ;
61 [label="gini = 0.0\nsamples = 1\nvalue = [0, 1]\nclass = Yes", fillcolor="#399de5"] ;
60 -> 61 ;
62 [label="sales_6_month <= 0.5\ngini = 0.165\nsamples = 66\nvalue = [60, 6]\nclass = No", fillcolor="#e88e4d"] ;
60 -> 62 ;
63 [label="national_inv <= 0.5\ngini = 0.146\nsamples = 63\nvalue = [58, 5]\nclass = No", fillcolor="#e78c4a"] ;
62 -> 63 ;
64 [label="in_transit_qty <= 1.0\ngini = 0.21\nsamples = 42\nvalue = [37, 5]\nclass = No", fillcolor="#e99254"] ;
63 -> 64 ;
65 [label="min_bank <= 0.5\ngini = 0.234\nsamples = 37\nvalue = [32, 5]\nclass = No", fillcolor="#e99558"] ;
64 -> 65 ;
66 [label="gini = 0.245\nsamples = 35\nvalue = [30, 5]\nclass = No", fillcolor="#e9965a"] ;
65 -> 66 ;
67 [label="gini = 0.0\nsamples = 2\nvalue = [2, 0]\nclass = No", fillcolor="#e58139"] ;
65 -> 67 ;
68 [label="gini = 0.0\nsamples = 5\nvalue = [5, 0]\nclass = No", fillcolor="#e58139"] ;
64 -> 68 ;
69 [label="gini = 0.0\nsamples = 21\nvalue = [21, 0]\nclass = No", fillcolor="#e58139"] ;
63 -> 69 ;
70 [label="national_inv <= 0.5\ngini = 0.444\nsamples = 3\nvalue = [2, 1]\nclass = No", fillcolor="#f2c09c"] ;
62 -> 70 ;
71 [label="gini = 0.0\nsamples = 2\nvalue = [2, 0]\nclass = No", fillcolor="#e58139"] ;
70 -> 71 ;
72 [label="gini = 0.0\nsamples = 1\nvalue = [0, 1]\nclass = Yes", fillcolor="#399de5"] ;
70 -> 72 ;
73 [label="gini = 0.0\nsamples = 66\nvalue = [66, 0]\nclass = No", fillcolor="#e58139"] ;
57 -> 73 ;
74 [label="perf_6_month_avg <= 0.965\ngini = 0.394\nsamples = 74\nvalue = [54, 20]\nclass = No", fillcolor="#efb082"] ;
56 -> 74 ;
75 [label="national_inv <= 0.5\ngini = 0.475\nsamples = 18\nvalue = [7, 11]\nclass = Yes", fillcolor="#b7dbf6"] ;
74 -> 75 ;
76 [label="deck_risk_Yes <= 0.5\ngini = 0.298\nsamples = 11\nvalue = [2, 9]\nclass = Yes", fillcolor="#65b3eb"] ;
75 -> 76 ;
77 [label="gini = 0.0\nsamples = 9\nvalue = [0, 9]\nclass = Yes", fillcolor="#399de5"] ;
76 -> 77 ;
78 [label="gini = 0.0\nsamples = 2\nvalue = [2, 0]\nclass = No", fillcolor="#e58139"] ;
76 -> 78 ;
79 [label="deck_risk_Yes <= 0.5\ngini = 0.408\nsamples = 7\nvalue = [5, 2]\nclass = No", fillcolor="#efb388"] ;
75 -> 79 ;
80 [label="gini = 0.0\nsamples = 4\nvalue = [4, 0]\nclass = No", fillcolor="#e58139"] ;
79 -> 80 ;
81 [label="perf_6_month_avg <= 0.955\ngini = 0.444\nsamples = 3\nvalue = [1, 2]\nclass = Yes", fillcolor="#9ccef2"] ;
79 -> 81 ;
82 [label="gini = 0.0\nsamples = 2\nvalue = [0, 2]\nclass = Yes", fillcolor="#399de5"] ;
81 -> 82 ;
83 [label="gini = 0.0\nsamples = 1\nvalue = [1, 0]\nclass = No", fillcolor="#e58139"] ;
81 -> 83 ;
84 [label="national_inv <= 0.5\ngini = 0.27\nsamples = 56\nvalue = [47, 9]\nclass = No", fillcolor="#ea995f"] ;
74 -> 84 ;
85 [label="deck_risk_Yes <= 0.5\ngini = 0.355\nsamples = 39\nvalue = [30, 9]\nclass = No", fillcolor="#eda774"] ;
84 -> 85 ;
86 [label="perf_12_month_avg <= 0.985\ngini = 0.472\nsamples = 21\nvalue = [13, 8]\nclass = No", fillcolor="#f5cfb3"] ;
85 -> 86 ;
87 [label="perf_6_month_avg <= 0.975\ngini = 0.305\nsamples = 16\nvalue = [13, 3]\nclass = No", fillcolor="#eb9e67"] ;
86 -> 87 ;
88 [label="perf_12_month_avg <= 0.93\ngini = 0.48\nsamples = 5\nvalue = [2, 3]\nclass = Yes", fillcolor="#bddef6"] ;
87 -> 88 ;
89 [label="gini = 0.0\nsamples = 2\nvalue = [0, 2]\nclass = Yes", fillcolor="#399de5"] ;
88 -> 89 ;
90 [label="perf_12_month_avg <= 0.97\ngini = 0.444\nsamples = 3\nvalue = [2, 1]\nclass = No", fillcolor="#f2c09c"] ;
88 -> 90 ;
91 [label="gini = 0.0\nsamples = 1\nvalue = [1, 0]\nclass = No", fillcolor="#e58139"] ;
90 -> 91 ;
92 [label="gini = 0.5\nsamples = 2\nvalue = [1, 1]\nclass = No", fillcolor="#ffffff"] ;
90 -> 92 ;
93 [label="gini = 0.0\nsamples = 11\nvalue = [11, 0]\nclass = No", fillcolor="#e58139"] ;
87 -> 93 ;
94 [label="gini = 0.0\nsamples = 5\nvalue = [0, 5]\nclass = Yes", fillcolor="#399de5"] ;
86 -> 94 ;
95 [label="perf_12_month_avg <= 0.94\ngini = 0.105\nsamples = 18\nvalue = [17, 1]\nclass = No", fillcolor="#e78845"] ;
85 -> 95 ;
96 [label="in_transit_qty <= 1.0\ngini = 0.444\nsamples = 3\nvalue = [2, 1]\nclass = No", fillcolor="#f2c09c"] ;
95 -> 96 ;
97 [label="gini = 0.0\nsamples = 1\nvalue = [0, 1]\nclass = Yes", fillcolor="#399de5"] ;
96 -> 97 ;
98 [label="gini = 0.0\nsamples = 2\nvalue = [2, 0]\nclass = No", fillcolor="#e58139"] ;
96 -> 98 ;
99 [label="gini = 0.0\nsamples = 15\nvalue = [15, 0]\nclass = No", fillcolor="#e58139"] ;
95 -> 99 ;
100 [label="gini = 0.0\nsamples = 17\nvalue = [17, 0]\nclass = No", fillcolor="#e58139"] ;
84 -> 100 ;
101 [label="perf_6_month_avg <= 0.945\ngini = 0.485\nsamples = 29\nvalue = [17, 12]\nclass = No", fillcolor="#f7dac5"] ;
55 -> 101 ;
102 [label="deck_risk_Yes <= 0.5\ngini = 0.49\nsamples = 21\nvalue = [9, 12]\nclass = Yes", fillcolor="#cee6f8"] ;
101 -> 102 ;
103 [label="national_inv <= 0.5\ngini = 0.337\nsamples = 14\nvalue = [3, 11]\nclass = Yes", fillcolor="#6fb8ec"] ;
102 -> 103 ;
104 [label="gini = 0.0\nsamples = 8\nvalue = [0, 8]\nclass = Yes", fillcolor="#399de5"] ;
103 -> 104 ;
105 [label="sales_6_month <= 1.5\ngini = 0.5\nsamples = 6\nvalue = [3, 3]\nclass = No", fillcolor="#ffffff"] ;
103 -> 105 ;
106 [label="perf_12_month_avg <= 0.925\ngini = 0.48\nsamples = 5\nvalue = [2, 3]\nclass = Yes", fillcolor="#bddef6"] ;
105 -> 106 ;
107 [label="in_transit_qty <= 0.5\ngini = 0.375\nsamples = 4\nvalue = [1, 3]\nclass = Yes", fillcolor="#7bbeee"] ;
106 -> 107 ;
108 [label="gini = 0.0\nsamples = 3\nvalue = [0, 3]\nclass = Yes", fillcolor="#399de5"] ;
107 -> 108 ;
109 [label="gini = 0.0\nsamples = 1\nvalue = [1, 0]\nclass = No", fillcolor="#e58139"] ;
107 -> 109 ;
110 [label="gini = 0.0\nsamples = 1\nvalue = [1, 0]\nclass = No", fillcolor="#e58139"] ;
106 -> 110 ;
111 [label="gini = 0.0\nsamples = 1\nvalue = [1, 0]\nclass = No", fillcolor="#e58139"] ;
105 -> 111 ;
112 [label="lead_time <= 3.0\ngini = 0.245\nsamples = 7\nvalue = [6, 1]\nclass = No", fillcolor="#e9965a"] ;
102 -> 112 ;
113 [label="perf_12_month_avg <= 0.785\ngini = 0.5\nsamples = 2\nvalue = [1, 1]\nclass = No", fillcolor="#ffffff"] ;
112 -> 113 ;
114 [label="gini = 0.0\nsamples = 1\nvalue = [1, 0]\nclass = No", fillcolor="#e58139"] ;
113 -> 114 ;
115 [label="gini = 0.0\nsamples = 1\nvalue = [0, 1]\nclass = Yes", fillcolor="#399de5"] ;
113 -> 115 ;
116 [label="gini = 0.0\nsamples = 5\nvalue = [5, 0]\nclass = No", fillcolor="#e58139"] ;
112 -> 116 ;
117 [label="gini = 0.0\nsamples = 8\nvalue = [8, 0]\nclass = No", fillcolor="#e58139"] ;
101 -> 117 ;
118 [label="deck_risk_Yes <= 0.5\ngini = 0.368\nsamples = 37\nvalue = [9, 28]\nclass = Yes", fillcolor="#79bced"] ;
4 -> 118 ;
119 [label="in_transit_qty <= 8.0\ngini = 0.225\nsamples = 31\nvalue = [4, 27]\nclass = Yes", fillcolor="#56ace9"] ;
118 -> 119 ;
120 [label="national_inv <= 0.5\ngini = 0.133\nsamples = 28\nvalue = [2, 26]\nclass = Yes", fillcolor="#48a5e7"] ;
119 -> 120 ;
121 [label="gini = 0.0\nsamples = 22\nvalue = [0, 22]\nclass = Yes", fillcolor="#399de5"] ;
120 -> 121 ;
122 [label="perf_6_month_avg <= 0.81\ngini = 0.444\nsamples = 6\nvalue = [2, 4]\nclass = Yes", fillcolor="#9ccef2"] ;
120 -> 122 ;
123 [label="sales_6_month <= 2.5\ngini = 0.444\nsamples = 3\nvalue = [2, 1]\nclass = No", fillcolor="#f2c09c"] ;
122 -> 123 ;
124 [label="gini = 0.0\nsamples = 1\nvalue = [0, 1]\nclass = Yes", fillcolor="#399de5"] ;
123 -> 124 ;
125 [label="gini = 0.0\nsamples = 2\nvalue = [2, 0]\nclass = No", fillcolor="#e58139"] ;
123 -> 125 ;
126 [label="gini = 0.0\nsamples = 3\nvalue = [0, 3]\nclass = Yes", fillcolor="#399de5"] ;
122 -> 126 ;
127 [label="sales_1_month <= 43.5\ngini = 0.444\nsamples = 3\nvalue = [2, 1]\nclass = No", fillcolor="#f2c09c"] ;
119 -> 127 ;
128 [label="gini = 0.0\nsamples = 2\nvalue = [2, 0]\nclass = No", fillcolor="#e58139"] ;
127 -> 128 ;
129 [label="gini = 0.0\nsamples = 1\nvalue = [0, 1]\nclass = Yes", fillcolor="#399de5"] ;
127 -> 129 ;
130 [label="sales_1_month <= 2.5\ngini = 0.278\nsamples = 6\nvalue = [5, 1]\nclass = No", fillcolor="#ea9a61"] ;
118 -> 130 ;
131 [label="gini = 0.0\nsamples = 4\nvalue = [4, 0]\nclass = No", fillcolor="#e58139"] ;
130 -> 131 ;
132 [label="perf_12_month_avg <= -49.08\ngini = 0.5\nsamples = 2\nvalue = [1, 1]\nclass = No", fillcolor="#ffffff"] ;
130 -> 132 ;
133 [label="gini = 0.0\nsamples = 1\nvalue = [1, 0]\nclass = No", fillcolor="#e58139"] ;
132 -> 133 ;
134 [label="gini = 0.0\nsamples = 1\nvalue = [0, 1]\nclass = Yes", fillcolor="#399de5"] ;
132 -> 134 ;
135 [label="local_bo_qty <= 0.5\ngini = 0.101\nsamples = 1144\nvalue = [1083, 61]\nclass = No", fillcolor="#e68844"] ;
3 -> 135 ;
136 [label="sales_6_month <= 0.5\ngini = 0.097\nsamples = 1139\nvalue = [1081, 58]\nclass = No", fillcolor="#e68844"] ;
135 -> 136 ;
137 [label="lead_time <= 34.5\ngini = 0.072\nsamples = 936\nvalue = [901, 35]\nclass = No", fillcolor="#e68641"] ;
136 -> 137 ;
138 [label="in_transit_qty <= 212.5\ngini = 0.063\nsamples = 923\nvalue = [893, 30]\nclass = No", fillcolor="#e68540"] ;
137 -> 138 ;
139 [label="sales_9_month <= 2.5\ngini = 0.061\nsamples = 922\nvalue = [893, 29]\nclass = No", fillcolor="#e6853f"] ;
138 -> 139 ;
140 [label="perf_12_month_avg <= 0.755\ngini = 0.057\nsamples = 918\nvalue = [891, 27]\nclass = No", fillcolor="#e6853f"] ;
139 -> 140 ;
141 [label="perf_12_month_avg <= 0.665\ngini = 0.018\nsamples = 327\nvalue = [324, 3]\nclass = No", fillcolor="#e5823b"] ;
140 -> 141 ;
142 [label="perf_12_month_avg <= 0.655\ngini = 0.028\nsamples = 213\nvalue = [210, 3]\nclass = No", fillcolor="#e5833c"] ;
141 -> 142 ;
143 [label="perf_12_month_avg <= -49.5\ngini = 0.013\nsamples = 157\nvalue = [156, 1]\nclass = No", fillcolor="#e5823a"] ;
142 -> 143 ;
144 [label="ppap_risk_Yes <= 0.5\ngini = 0.044\nsamples = 44\nvalue = [43, 1]\nclass = No", fillcolor="#e6843e"] ;
143 -> 144 ;
145 [label="lead_time <= 10.0\ngini = 0.074\nsamples = 26\nvalue = [25, 1]\nclass = No", fillcolor="#e68641"] ;
144 -> 145 ;
146 [label="min_bank <= 0.5\ngini = 0.091\nsamples = 21\nvalue = [20, 1]\nclass = No", fillcolor="#e68743"] ;
145 -> 146 ;
147 [label="stop_auto_buy_Yes <= 0.5\ngini = 0.105\nsamples = 18\nvalue = [17, 1]\nclass = No", fillcolor="#e78845"] ;
146 -> 147 ;
148 [label="gini = 0.0\nsamples = 1\nvalue = [1, 0]\nclass = No", fillcolor="#e58139"] ;
147 -> 148 ;
149 [label="lead_time <= 7.0\ngini = 0.111\nsamples = 17\nvalue = [16, 1]\nclass = No", fillcolor="#e78945"] ;
147 -> 149 ;
150 [label="gini = 0.0\nsamples = 1\nvalue = [1, 0]\nclass = No", fillcolor="#e58139"] ;
149 -> 150 ;
151 [label="gini = 0.117\nsamples = 16\nvalue = [15, 1]\nclass = No", fillcolor="#e78946"] ;
149 -> 151 ;
152 [label="gini = 0.0\nsamples = 3\nvalue = [3, 0]\nclass = No", fillcolor="#e58139"] ;
146 -> 152 ;
153 [label="gini = 0.0\nsamples = 5\nvalue = [5, 0]\nclass = No", fillcolor="#e58139"] ;
145 -> 153 ;
154 [label="gini = 0.0\nsamples = 18\nvalue = [18, 0]\nclass = No", fillcolor="#e58139"] ;
144 -> 154 ;
155 [label="gini = 0.0\nsamples = 113\nvalue = [113, 0]\nclass = No", fillcolor="#e58139"] ;
143 -> 155 ;
156 [label="perf_6_month_avg <= 0.69\ngini = 0.069\nsamples = 56\nvalue = [54, 2]\nclass = No", fillcolor="#e68640"] ;
142 -> 156 ;
157 [label="ppap_risk_Yes <= 0.5\ngini = 0.124\nsamples = 30\nvalue = [28, 2]\nclass = No", fillcolor="#e78a47"] ;
156 -> 157 ;
158 [label="min_bank <= 0.5\ngini = 0.18\nsamples = 20\nvalue = [18, 2]\nclass = No", fillcolor="#e88f4f"] ;
157 -> 158 ;
159 [label="gini = 0.0\nsamples = 5\nvalue = [5, 0]\nclass = No", fillcolor="#e58139"] ;
158 -> 159 ;
160 [label="national_inv <= 0.5\ngini = 0.231\nsamples = 15\nvalue = [13, 2]\nclass = No", fillcolor="#e99457"] ;
158 -> 160 ;
161 [label="gini = 0.0\nsamples = 4\nvalue = [4, 0]\nclass = No", fillcolor="#e58139"] ;
160 -> 161 ;
162 [label="deck_risk_Yes <= 0.5\ngini = 0.298\nsamples = 11\nvalue = [9, 2]\nclass = No", fillcolor="#eb9d65"] ;
160 -> 162 ;
163 [label="gini = 0.346\nsamples = 9\nvalue = [7, 2]\nclass = No", fillcolor="#eca572"] ;
162 -> 163 ;
164 [label="gini = 0.0\nsamples = 2\nvalue = [2, 0]\nclass = No", fillcolor="#e58139"] ;
162 -> 164 ;
165 [label="gini = 0.0\nsamples = 10\nvalue = [10, 0]\nclass = No", fillcolor="#e58139"] ;
157 -> 165 ;
166 [label="gini = 0.0\nsamples = 26\nvalue = [26, 0]\nclass = No", fillcolor="#e58139"] ;
156 -> 166 ;
167 [label="gini = 0.0\nsamples = 114\nvalue = [114, 0]\nclass = No", fillcolor="#e58139"] ;
141 -> 167 ;
168 [label="national_inv <= 0.5\ngini = 0.078\nsamples = 591\nvalue = [567, 24]\nclass = No", fillcolor="#e68641"] ;
140 -> 168 ;
169 [label="lead_time <= 8.5\ngini = 0.118\nsamples = 318\nvalue = [298, 20]\nclass = No", fillcolor="#e78946"] ;
168 -> 169 ;
170 [label="perf_12_month_avg <= 0.935\ngini = 0.057\nsamples = 239\nvalue = [232, 7]\nclass = No", fillcolor="#e6853f"] ;
169 -> 170 ;
171 [label="gini = 0.0\nsamples = 100\nvalue = [100, 0]\nclass = No", fillcolor="#e58139"] ;
170 -> 171 ;
172 [label="perf_6_month_avg <= 0.965\ngini = 0.096\nsamples = 139\nvalue = [132, 7]\nclass = No", fillcolor="#e68844"] ;
170 -> 172 ;
173 [label="perf_6_month_avg <= 0.955\ngini = 0.211\nsamples = 25\nvalue = [22, 3]\nclass = No", fillcolor="#e99254"] ;
172 -> 173 ;
174 [label="gini = 0.0\nsamples = 12\nvalue = [12, 0]\nclass = No", fillcolor="#e58139"] ;
173 -> 174 ;
175 [label="perf_12_month_avg <= 0.95\ngini = 0.355\nsamples = 13\nvalue = [10, 3]\nclass = No", fillcolor="#eda774"] ;
173 -> 175 ;
176 [label="gini = 0.0\nsamples = 1\nvalue = [0, 1]\nclass = Yes", fillcolor="#399de5"] ;
175 -> 176 ;
177 [label="perf_12_month_avg <= 0.965\ngini = 0.278\nsamples = 12\nvalue = [10, 2]\nclass = No", fillcolor="#ea9a61"] ;
175 -> 177 ;
178 [label="gini = 0.298\nsamples = 11\nvalue = [9, 2]\nclass = No", fillcolor="#eb9d65"] ;
177 -> 178 ;
179 [label="gini = 0.0\nsamples = 1\nvalue = [1, 0]\nclass = No", fillcolor="#e58139"] ;
177 -> 179 ;
180 [label="perf_12_month_avg <= 0.975\ngini = 0.068\nsamples = 114\nvalue = [110, 4]\nclass = No", fillcolor="#e68640"] ;
172 -> 180 ;
181 [label="gini = 0.0\nsamples = 43\nvalue = [43, 0]\nclass = No", fillcolor="#e58139"] ;
180 -> 181 ;
182 [label="perf_12_month_avg <= 0.985\ngini = 0.106\nsamples = 71\nvalue = [67, 4]\nclass = No", fillcolor="#e78945"] ;
180 -> 182 ;
183 [label="perf_6_month_avg <= 0.975\ngini = 0.208\nsamples = 34\nvalue = [30, 4]\nclass = No", fillcolor="#e89253"] ;
182 -> 183 ;
184 [label="gini = 0.0\nsamples = 13\nvalue = [13, 0]\nclass = No", fillcolor="#e58139"] ;
183 -> 184 ;
185 [label="ppap_risk_Yes <= 0.5\ngini = 0.308\nsamples = 21\nvalue = [17, 4]\nclass = No", fillcolor="#eb9f68"] ;
183 -> 185 ;
186 [label="perf_6_month_avg <= 0.995\ngini = 0.426\nsamples = 13\nvalue = [9, 4]\nclass = No", fillcolor="#f1b991"] ;
185 -> 186 ;
187 [label="perf_6_month_avg <= 0.985\ngini = 0.5\nsamples = 8\nvalue = [4, 4]\nclass = No", fillcolor="#ffffff"] ;
186 -> 187 ;
188 [label="gini = 0.444\nsamples = 3\nvalue = [2, 1]\nclass = No", fillcolor="#f2c09c"] ;
187 -> 188 ;
189 [label="gini = 0.48\nsamples = 5\nvalue = [2, 3]\nclass = Yes", fillcolor="#bddef6"] ;
187 -> 189 ;
190 [label="gini = 0.0\nsamples = 5\nvalue = [5, 0]\nclass = No", fillcolor="#e58139"] ;
186 -> 190 ;
191 [label="gini = 0.0\nsamples = 8\nvalue = [8, 0]\nclass = No", fillcolor="#e58139"] ;
185 -> 191 ;
192 [label="gini = 0.0\nsamples = 37\nvalue = [37, 0]\nclass = No", fillcolor="#e58139"] ;
182 -> 192 ;
193 [label="perf_6_month_avg <= 0.865\ngini = 0.275\nsamples = 79\nvalue = [66, 13]\nclass = No", fillcolor="#ea9a60"] ;
169 -> 193 ;
194 [label="perf_6_month_avg <= 0.755\ngini = 0.418\nsamples = 37\nvalue = [26, 11]\nclass = No", fillcolor="#f0b68d"] ;
193 -> 194 ;
195 [label="perf_12_month_avg <= 0.775\ngini = 0.198\nsamples = 18\nvalue = [16, 2]\nclass = No", fillcolor="#e89152"] ;
194 -> 195 ;
196 [label="gini = 0.375\nsamples = 4\nvalue = [3, 1]\nclass = No", fillcolor="#eeab7b"] ;
195 -> 196 ;
197 [label="ppap_risk_Yes <= 0.5\ngini = 0.133\nsamples = 14\nvalue = [13, 1]\nclass = No", fillcolor="#e78b48"] ;
195 -> 197 ;
198 [label="deck_risk_Yes <= 0.5\ngini = 0.153\nsamples = 12\nvalue = [11, 1]\nclass = No", fillcolor="#e78c4b"] ;
197 -> 198 ;
199 [label="in_transit_qty <= 0.5\ngini = 0.18\nsamples = 10\nvalue = [9, 1]\nclass = No", fillcolor="#e88f4f"] ;
198 -> 199 ;
200 [label="gini = 0.198\nsamples = 9\nvalue = [8, 1]\nclass = No", fillcolor="#e89152"] ;
199 -> 200 ;
201 [label="gini = 0.0\nsamples = 1\nvalue = [1, 0]\nclass = No", fillcolor="#e58139"] ;
199 -> 201 ;
202 [label="gini = 0.0\nsamples = 2\nvalue = [2, 0]\nclass = No", fillcolor="#e58139"] ;
198 -> 202 ;
203 [label="gini = 0.0\nsamples = 2\nvalue = [2, 0]\nclass = No", fillcolor="#e58139"] ;
197 -> 203 ;
204 [label="ppap_risk_Yes <= 0.5\ngini = 0.499\nsamples = 19\nvalue = [10, 9]\nclass = No", fillcolor="#fcf2eb"] ;
194 -> 204 ;
205 [label="lead_time <= 13.5\ngini = 0.426\nsamples = 13\nvalue = [4, 9]\nclass = Yes", fillcolor="#91c9f1"] ;
204 -> 205 ;
206 [label="deck_risk_Yes <= 0.5\ngini = 0.375\nsamples = 12\nvalue = [3, 9]\nclass = Yes", fillcolor="#7bbeee"] ;
205 -> 206 ;
207 [label="perf_6_month_avg <= 0.8\ngini = 0.32\nsamples = 10\nvalue = [2, 8]\nclass = Yes", fillcolor="#6ab6ec"] ;
206 -> 207 ;
208 [label="gini = 0.444\nsamples = 6\nvalue = [2, 4]\nclass = Yes", fillcolor="#9ccef2"] ;
207 -> 208 ;
209 [label="gini = 0.0\nsamples = 4\nvalue = [0, 4]\nclass = Yes", fillcolor="#399de5"] ;
207 -> 209 ;
210 [label="perf_6_month_avg <= 0.8\ngini = 0.5\nsamples = 2\nvalue = [1, 1]\nclass = No", fillcolor="#ffffff"] ;
206 -> 210 ;
211 [label="gini = 0.0\nsamples = 1\nvalue = [0, 1]\nclass = Yes", fillcolor="#399de5"] ;
210 -> 211 ;
212 [label="gini = 0.0\nsamples = 1\nvalue = [1, 0]\nclass = No", fillcolor="#e58139"] ;
210 -> 212 ;
213 [label="gini = 0.0\nsamples = 1\nvalue = [1, 0]\nclass = No", fillcolor="#e58139"] ;
205 -> 213 ;
214 [label="gini = 0.0\nsamples = 6\nvalue = [6, 0]\nclass = No", fillcolor="#e58139"] ;
204 -> 214 ;
215 [label="perf_6_month_avg <= 0.995\ngini = 0.091\nsamples = 42\nvalue = [40, 2]\nclass = No", fillcolor="#e68743"] ;
193 -> 215 ;
216 [label="gini = 0.0\nsamples = 37\nvalue = [37, 0]\nclass = No", fillcolor="#e58139"] ;
215 -> 216 ;
217 [label="ppap_risk_Yes <= 0.5\ngini = 0.48\nsamples = 5\nvalue = [3, 2]\nclass = No", fillcolor="#f6d5bd"] ;
215 -> 217 ;
218 [label="gini = 0.0\nsamples = 3\nvalue = [3, 0]\nclass = No", fillcolor="#e58139"] ;
217 -> 218 ;
219 [label="gini = 0.0\nsamples = 2\nvalue = [0, 2]\nclass = Yes", fillcolor="#399de5"] ;
217 -> 219 ;
220 [label="perf_12_month_avg <= 0.765\ngini = 0.029\nsamples = 273\nvalue = [269, 4]\nclass = No", fillcolor="#e5833c"] ;
168 -> 220 ;
221 [label="perf_6_month_avg <= 0.735\ngini = 0.133\nsamples = 14\nvalue = [13, 1]\nclass = No", fillcolor="#e78b48"] ;
220 -> 221 ;
222 [label="gini = 0.0\nsamples = 12\nvalue = [12, 0]\nclass = No", fillcolor="#e58139"] ;
221 -> 222 ;
223 [label="min_bank <= 0.5\ngini = 0.5\nsamples = 2\nvalue = [1, 1]\nclass = No", fillcolor="#ffffff"] ;
221 -> 223 ;
224 [label="gini = 0.0\nsamples = 1\nvalue = [1, 0]\nclass = No", fillcolor="#e58139"] ;
223 -> 224 ;
225 [label="gini = 0.0\nsamples = 1\nvalue = [0, 1]\nclass = Yes", fillcolor="#399de5"] ;
223 -> 225 ;
226 [label="perf_12_month_avg <= 0.875\ngini = 0.023\nsamples = 259\nvalue = [256, 3]\nclass = No", fillcolor="#e5823b"] ;
220 -> 226 ;
227 [label="gini = 0.0\nsamples = 143\nvalue = [143, 0]\nclass = No", fillcolor="#e58139"] ;
226 -> 227 ;
228 [label="perf_12_month_avg <= 0.885\ngini = 0.05\nsamples = 116\nvalue = [113, 3]\nclass = No", fillcolor="#e6843e"] ;
226 -> 228 ;
229 [label="perf_6_month_avg <= 0.885\ngini = 0.32\nsamples = 10\nvalue = [8, 2]\nclass = No", fillcolor="#eca06a"] ;
228 -> 229 ;
230 [label="gini = 0.0\nsamples = 1\nvalue = [0, 1]\nclass = Yes", fillcolor="#399de5"] ;
229 -> 230 ;
231 [label="ppap_risk_Yes <= 0.5\ngini = 0.198\nsamples = 9\nvalue = [8, 1]\nclass = No", fillcolor="#e89152"] ;
229 -> 231 ;
232 [label="gini = 0.219\nsamples = 8\nvalue = [7, 1]\nclass = No", fillcolor="#e99355"] ;
231 -> 232 ;
233 [label="gini = 0.0\nsamples = 1\nvalue = [1, 0]\nclass = No", fillcolor="#e58139"] ;
231 -> 233 ;
234 [label="lead_time <= 8.5\ngini = 0.019\nsamples = 106\nvalue = [105, 1]\nclass = No", fillcolor="#e5823b"] ;
228 -> 234 ;
235 [label="gini = 0.0\nsamples = 78\nvalue = [78, 0]\nclass = No", fillcolor="#e58139"] ;
234 -> 235 ;
236 [label="perf_6_month_avg <= 0.985\ngini = 0.069\nsamples = 28\nvalue = [27, 1]\nclass = No", fillcolor="#e68640"] ;
234 -> 236 ;
237 [label="perf_6_month_avg <= 0.965\ngini = 0.219\nsamples = 8\nvalue = [7, 1]\nclass = No", fillcolor="#e99355"] ;
236 -> 237 ;
238 [label="gini = 0.0\nsamples = 7\nvalue = [7, 0]\nclass = No", fillcolor="#e58139"] ;
237 -> 238 ;
239 [label="gini = 0.0\nsamples = 1\nvalue = [0, 1]\nclass = Yes", fillcolor="#399de5"] ;
237 -> 239 ;
240 [label="gini = 0.0\nsamples = 20\nvalue = [20, 0]\nclass = No", fillcolor="#e58139"] ;
236 -> 240 ;
241 [label="deck_risk_Yes <= 0.5\ngini = 0.5\nsamples = 4\nvalue = [2, 2]\nclass = No", fillcolor="#ffffff"] ;
139 -> 241 ;
242 [label="gini = 0.0\nsamples = 2\nvalue = [0, 2]\nclass = Yes", fillcolor="#399de5"] ;
241 -> 242 ;
243 [label="gini = 0.0\nsamples = 2\nvalue = [2, 0]\nclass = No", fillcolor="#e58139"] ;
241 -> 243 ;
244 [label="gini = 0.0\nsamples = 1\nvalue = [0, 1]\nclass = Yes", fillcolor="#399de5"] ;
138 -> 244 ;
245 [label="min_bank <= 1.5\ngini = 0.473\nsamples = 13\nvalue = [8, 5]\nclass = No", fillcolor="#f5d0b5"] ;
137 -> 245 ;
246 [label="gini = 0.0\nsamples = 8\nvalue = [8, 0]\nclass = No", fillcolor="#e58139"] ;
245 -> 246 ;
247 [label="gini = 0.0\nsamples = 5\nvalue = [0, 5]\nclass = Yes", fillcolor="#399de5"] ;
245 -> 247 ;
248 [label="deck_risk_Yes <= 0.5\ngini = 0.201\nsamples = 203\nvalue = [180, 23]\nclass = No", fillcolor="#e89152"] ;
136 -> 248 ;
249 [label="perf_12_month_avg <= 0.815\ngini = 0.325\nsamples = 93\nvalue = [74, 19]\nclass = No", fillcolor="#eca16c"] ;
248 -> 249 ;
250 [label="perf_6_month_avg <= 0.05\ngini = 0.153\nsamples = 60\nvalue = [55, 5]\nclass = No", fillcolor="#e78c4b"] ;
249 -> 250 ;
251 [label="sales_6_month <= 133.5\ngini = 0.48\nsamples = 5\nvalue = [2, 3]\nclass = Yes", fillcolor="#bddef6"] ;
250 -> 251 ;
252 [label="gini = 0.0\nsamples = 3\nvalue = [0, 3]\nclass = Yes", fillcolor="#399de5"] ;
251 -> 252 ;
253 [label="gini = 0.0\nsamples = 2\nvalue = [2, 0]\nclass = No", fillcolor="#e58139"] ;
251 -> 253 ;
254 [label="perf_12_month_avg <= 0.735\ngini = 0.07\nsamples = 55\nvalue = [53, 2]\nclass = No", fillcolor="#e68640"] ;
250 -> 254 ;
255 [label="gini = 0.0\nsamples = 36\nvalue = [36, 0]\nclass = No", fillcolor="#e58139"] ;
254 -> 255 ;
256 [label="perf_12_month_avg <= 0.75\ngini = 0.188\nsamples = 19\nvalue = [17, 2]\nclass = No", fillcolor="#e89050"] ;
254 -> 256 ;
257 [label="gini = 0.0\nsamples = 2\nvalue = [0, 2]\nclass = Yes", fillcolor="#399de5"] ;
256 -> 257 ;
258 [label="gini = 0.0\nsamples = 17\nvalue = [17, 0]\nclass = No", fillcolor="#e58139"] ;
256 -> 258 ;
259 [label="national_inv <= 0.5\ngini = 0.489\nsamples = 33\nvalue = [19, 14]\nclass = No", fillcolor="#f8decb"] ;
249 -> 259 ;
260 [label="min_bank <= 1.5\ngini = 0.18\nsamples = 10\nvalue = [1, 9]\nclass = Yes", fillcolor="#4fa8e8"] ;
259 -> 260 ;
261 [label="gini = 0.0\nsamples = 9\nvalue = [0, 9]\nclass = Yes", fillcolor="#399de5"] ;
260 -> 261 ;
262 [label="gini = 0.0\nsamples = 1\nvalue = [1, 0]\nclass = No", fillcolor="#e58139"] ;
260 -> 262 ;
263 [label="perf_6_month_avg <= 0.865\ngini = 0.34\nsamples = 23\nvalue = [18, 5]\nclass = No", fillcolor="#eca470"] ;
259 -> 263 ;
264 [label="gini = 0.0\nsamples = 8\nvalue = [8, 0]\nclass = No", fillcolor="#e58139"] ;
263 -> 264 ;
265 [label="perf_6_month_avg <= 0.91\ngini = 0.444\nsamples = 15\nvalue = [10, 5]\nclass = No", fillcolor="#f2c09c"] ;
263 -> 265 ;
266 [label="gini = 0.0\nsamples = 2\nvalue = [0, 2]\nclass = Yes", fillcolor="#399de5"] ;
265 -> 266 ;
267 [label="min_bank <= 2.5\ngini = 0.355\nsamples = 13\nvalue = [10, 3]\nclass = No", fillcolor="#eda774"] ;
265 -> 267 ;
268 [label="sales_9_month <= 1.5\ngini = 0.278\nsamples = 12\nvalue = [10, 2]\nclass = No", fillcolor="#ea9a61"] ;
267 -> 268 ;
269 [label="perf_6_month_avg <= 0.985\ngini = 0.444\nsamples = 6\nvalue = [4, 2]\nclass = No", fillcolor="#f2c09c"] ;
268 -> 269 ;
270 [label="gini = 0.0\nsamples = 2\nvalue = [2, 0]\nclass = No", fillcolor="#e58139"] ;
269 -> 270 ;
271 [label="lead_time <= 8.5\ngini = 0.5\nsamples = 4\nvalue = [2, 2]\nclass = No", fillcolor="#ffffff"] ;
269 -> 271 ;
272 [label="perf_12_month_avg <= 0.985\ngini = 0.444\nsamples = 3\nvalue = [1, 2]\nclass = Yes", fillcolor="#9ccef2"] ;
271 -> 272 ;
273 [label="gini = 0.0\nsamples = 1\nvalue = [0, 1]\nclass = Yes", fillcolor="#399de5"] ;
272 -> 273 ;
274 [label="gini = 0.5\nsamples = 2\nvalue = [1, 1]\nclass = No", fillcolor="#ffffff"] ;
272 -> 274 ;
275 [label="gini = 0.0\nsamples = 1\nvalue = [1, 0]\nclass = No", fillcolor="#e58139"] ;
271 -> 275 ;
276 [label="gini = 0.0\nsamples = 6\nvalue = [6, 0]\nclass = No", fillcolor="#e58139"] ;
268 -> 276 ;
277 [label="gini = 0.0\nsamples = 1\nvalue = [0, 1]\nclass = Yes", fillcolor="#399de5"] ;
267 -> 277 ;
278 [label="sales_9_month <= 1.5\ngini = 0.07\nsamples = 110\nvalue = [106, 4]\nclass = No", fillcolor="#e68640"] ;
248 -> 278 ;
279 [label="national_inv <= 0.5\ngini = 0.278\nsamples = 24\nvalue = [20, 4]\nclass = No", fillcolor="#ea9a61"] ;
278 -> 279 ;
280 [label="perf_12_month_avg <= 0.73\ngini = 0.49\nsamples = 7\nvalue = [3, 4]\nclass = Yes", fillcolor="#cee6f8"] ;
279 -> 280 ;
281 [label="perf_12_month_avg <= 0.56\ngini = 0.32\nsamples = 5\nvalue = [1, 4]\nclass = Yes", fillcolor="#6ab6ec"] ;
280 -> 281 ;
282 [label="gini = 0.0\nsamples = 1\nvalue = [1, 0]\nclass = No", fillcolor="#e58139"] ;
281 -> 282 ;
283 [label="gini = 0.0\nsamples = 4\nvalue = [0, 4]\nclass = Yes", fillcolor="#399de5"] ;
281 -> 283 ;
284 [label="gini = 0.0\nsamples = 2\nvalue = [2, 0]\nclass = No", fillcolor="#e58139"] ;
280 -> 284 ;
285 [label="gini = 0.0\nsamples = 17\nvalue = [17, 0]\nclass = No", fillcolor="#e58139"] ;
279 -> 285 ;
286 [label="gini = 0.0\nsamples = 86\nvalue = [86, 0]\nclass = No", fillcolor="#e58139"] ;
278 -> 286 ;
287 [label="in_transit_qty <= 8.5\ngini = 0.48\nsamples = 5\nvalue = [2, 3]\nclass = Yes", fillcolor="#bddef6"] ;
135 -> 287 ;
288 [label="gini = 0.0\nsamples = 3\nvalue = [0, 3]\nclass = Yes", fillcolor="#399de5"] ;
287 -> 288 ;
289 [label="gini = 0.0\nsamples = 2\nvalue = [2, 0]\nclass = No", fillcolor="#e58139"] ;
287 -> 289 ;
290 [label="sales_1_month <= 0.5\ngini = 0.467\nsamples = 528\nvalue = [332, 196]\nclass = No", fillcolor="#f4cbae"] ;
2 -> 290 ;
291 [label="national_inv <= 0.5\ngini = 0.404\nsamples = 395\nvalue = [284, 111]\nclass = No", fillcolor="#efb286"] ;
290 -> 291 ;
292 [label="sales_9_month <= 0.5\ngini = 0.472\nsamples = 225\nvalue = [139, 86]\nclass = No", fillcolor="#f5cfb4"] ;
291 -> 292 ;
293 [label="perf_12_month_avg <= 0.76\ngini = 0.409\nsamples = 143\nvalue = [102, 41]\nclass = No", fillcolor="#efb489"] ;
292 -> 293 ;
294 [label="perf_12_month_avg <= 0.455\ngini = 0.304\nsamples = 91\nvalue = [74, 17]\nclass = No", fillcolor="#eb9e66"] ;
293 -> 294 ;
295 [label="perf_12_month_avg <= 0.37\ngini = 0.411\nsamples = 45\nvalue = [32, 13]\nclass = No", fillcolor="#f0b489"] ;
294 -> 295 ;
296 [label="perf_6_month_avg <= 0.08\ngini = 0.346\nsamples = 36\nvalue = [28, 8]\nclass = No", fillcolor="#eca572"] ;
295 -> 296 ;
297 [label="gini = 0.0\nsamples = 7\nvalue = [7, 0]\nclass = No", fillcolor="#e58139"] ;
296 -> 297 ;
298 [label="perf_6_month_avg <= 0.185\ngini = 0.4\nsamples = 29\nvalue = [21, 8]\nclass = No", fillcolor="#efb184"] ;
296 -> 298 ;
299 [label="forecast_3_month <= 1.5\ngini = 0.5\nsamples = 10\nvalue = [5, 5]\nclass = No", fillcolor="#ffffff"] ;
298 -> 299 ;
300 [label="perf_6_month_avg <= 0.115\ngini = 0.408\nsamples = 7\nvalue = [5, 2]\nclass = No", fillcolor="#efb388"] ;
299 -> 300 ;
301 [label="gini = 0.0\nsamples = 4\nvalue = [4, 0]\nclass = No", fillcolor="#e58139"] ;
300 -> 301 ;
302 [label="ppap_risk_Yes <= 0.5\ngini = 0.444\nsamples = 3\nvalue = [1, 2]\nclass = Yes", fillcolor="#9ccef2"] ;
300 -> 302 ;
303 [label="gini = 0.0\nsamples = 2\nvalue = [0, 2]\nclass = Yes", fillcolor="#399de5"] ;
302 -> 303 ;
304 [label="gini = 0.0\nsamples = 1\nvalue = [1, 0]\nclass = No", fillcolor="#e58139"] ;
302 -> 304 ;
305 [label="gini = 0.0\nsamples = 3\nvalue = [0, 3]\nclass = Yes", fillcolor="#399de5"] ;
299 -> 305 ;
306 [label="deck_risk_Yes <= 0.5\ngini = 0.266\nsamples = 19\nvalue = [16, 3]\nclass = No", fillcolor="#ea995e"] ;
298 -> 306 ;
307 [label="gini = 0.0\nsamples = 7\nvalue = [7, 0]\nclass = No", fillcolor="#e58139"] ;
306 -> 307 ;
308 [label="perf_6_month_avg <= 0.265\ngini = 0.375\nsamples = 12\nvalue = [9, 3]\nclass = No", fillcolor="#eeab7b"] ;
306 -> 308 ;
309 [label="gini = 0.0\nsamples = 3\nvalue = [3, 0]\nclass = No", fillcolor="#e58139"] ;
308 -> 309 ;
310 [label="forecast_3_month <= 1.5\ngini = 0.444\nsamples = 9\nvalue = [6, 3]\nclass = No", fillcolor="#f2c09c"] ;
308 -> 310 ;
311 [label="gini = 0.0\nsamples = 1\nvalue = [0, 1]\nclass = Yes", fillcolor="#399de5"] ;
310 -> 311 ;
312 [label="lead_time <= 5.0\ngini = 0.375\nsamples = 8\nvalue = [6, 2]\nclass = No", fillcolor="#eeab7b"] ;
310 -> 312 ;
313 [label="gini = 0.0\nsamples = 3\nvalue = [3, 0]\nclass = No", fillcolor="#e58139"] ;
312 -> 313 ;
314 [label="perf_12_month_avg <= 0.355\ngini = 0.48\nsamples = 5\nvalue = [3, 2]\nclass = No", fillcolor="#f6d5bd"] ;
312 -> 314 ;
315 [label="gini = 0.0\nsamples = 1\nvalue = [0, 1]\nclass = Yes", fillcolor="#399de5"] ;
314 -> 315 ;
316 [label="perf_6_month_avg <= 0.395\ngini = 0.375\nsamples = 4\nvalue = [3, 1]\nclass = No", fillcolor="#eeab7b"] ;
314 -> 316 ;
317 [label="gini = 0.0\nsamples = 1\nvalue = [1, 0]\nclass = No", fillcolor="#e58139"] ;
316 -> 317 ;
318 [label="gini = 0.444\nsamples = 3\nvalue = [2, 1]\nclass = No", fillcolor="#f2c09c"] ;
316 -> 318 ;
319 [label="forecast_3_month <= 1.5\ngini = 0.494\nsamples = 9\nvalue = [4, 5]\nclass = Yes", fillcolor="#d7ebfa"] ;
295 -> 319 ;
320 [label="gini = 0.0\nsamples = 2\nvalue = [2, 0]\nclass = No", fillcolor="#e58139"] ;
319 -> 320 ;
321 [label="lead_time <= 10.5\ngini = 0.408\nsamples = 7\nvalue = [2, 5]\nclass = Yes", fillcolor="#88c4ef"] ;
319 -> 321 ;
322 [label="gini = 0.0\nsamples = 5\nvalue = [0, 5]\nclass = Yes", fillcolor="#399de5"] ;
321 -> 322 ;
323 [label="gini = 0.0\nsamples = 2\nvalue = [2, 0]\nclass = No", fillcolor="#e58139"] ;
321 -> 323 ;
324 [label="deck_risk_Yes <= 0.5\ngini = 0.159\nsamples = 46\nvalue = [42, 4]\nclass = No", fillcolor="#e78d4c"] ;
294 -> 324 ;
325 [label="perf_6_month_avg <= 0.6\ngini = 0.346\nsamples = 18\nvalue = [14, 4]\nclass = No", fillcolor="#eca572"] ;
324 -> 325 ;
326 [label="gini = 0.0\nsamples = 6\nvalue = [6, 0]\nclass = No", fillcolor="#e58139"] ;
325 -> 326 ;
327 [label="perf_6_month_avg <= 0.64\ngini = 0.444\nsamples = 12\nvalue = [8, 4]\nclass = No", fillcolor="#f2c09c"] ;
325 -> 327 ;
328 [label="forecast_6_month <= 1.5\ngini = 0.444\nsamples = 3\nvalue = [1, 2]\nclass = Yes", fillcolor="#9ccef2"] ;
327 -> 328 ;
329 [label="gini = 0.0\nsamples = 2\nvalue = [0, 2]\nclass = Yes", fillcolor="#399de5"] ;
328 -> 329 ;
330 [label="gini = 0.0\nsamples = 1\nvalue = [1, 0]\nclass = No", fillcolor="#e58139"] ;
328 -> 330 ;
331 [label="ppap_risk_Yes <= 0.5\ngini = 0.346\nsamples = 9\nvalue = [7, 2]\nclass = No", fillcolor="#eca572"] ;
327 -> 331 ;
332 [label="gini = 0.0\nsamples = 4\nvalue = [4, 0]\nclass = No", fillcolor="#e58139"] ;
331 -> 332 ;
333 [label="lead_time <= 7.0\ngini = 0.48\nsamples = 5\nvalue = [3, 2]\nclass = No", fillcolor="#f6d5bd"] ;
331 -> 333 ;
334 [label="gini = 0.0\nsamples = 2\nvalue = [2, 0]\nclass = No", fillcolor="#e58139"] ;
333 -> 334 ;
335 [label="perf_6_month_avg <= 0.69\ngini = 0.444\nsamples = 3\nvalue = [1, 2]\nclass = Yes", fillcolor="#9ccef2"] ;
333 -> 335 ;
336 [label="gini = 0.0\nsamples = 1\nvalue = [1, 0]\nclass = No", fillcolor="#e58139"] ;
335 -> 336 ;
337 [label="gini = 0.0\nsamples = 2\nvalue = [0, 2]\nclass = Yes", fillcolor="#399de5"] ;
335 -> 337 ;
338 [label="gini = 0.0\nsamples = 28\nvalue = [28, 0]\nclass = No", fillcolor="#e58139"] ;
324 -> 338 ;
339 [label="perf_12_month_avg <= 0.795\ngini = 0.497\nsamples = 52\nvalue = [28, 24]\nclass = No", fillcolor="#fbede3"] ;
293 -> 339 ;
340 [label="perf_6_month_avg <= 0.745\ngini = 0.308\nsamples = 21\nvalue = [4, 17]\nclass = Yes", fillcolor="#68b4eb"] ;
339 -> 340 ;
341 [label="deck_risk_Yes <= 0.5\ngini = 0.444\nsamples = 3\nvalue = [2, 1]\nclass = No", fillcolor="#f2c09c"] ;
340 -> 341 ;
342 [label="gini = 0.0\nsamples = 1\nvalue = [0, 1]\nclass = Yes", fillcolor="#399de5"] ;
341 -> 342 ;
343 [label="gini = 0.0\nsamples = 2\nvalue = [2, 0]\nclass = No", fillcolor="#e58139"] ;
341 -> 343 ;
344 [label="min_bank <= 0.5\ngini = 0.198\nsamples = 18\nvalue = [2, 16]\nclass = Yes", fillcolor="#52a9e8"] ;
340 -> 344 ;
345 [label="perf_12_month_avg <= 0.775\ngini = 0.111\nsamples = 17\nvalue = [1, 16]\nclass = Yes", fillcolor="#45a3e7"] ;
344 -> 345 ;
346 [label="forecast_6_month <= 1.5\ngini = 0.32\nsamples = 5\nvalue = [1, 4]\nclass = Yes", fillcolor="#6ab6ec"] ;
345 -> 346 ;
347 [label="gini = 0.0\nsamples = 1\nvalue = [0, 1]\nclass = Yes", fillcolor="#399de5"] ;
346 -> 347 ;
348 [label="gini = 0.375\nsamples = 4\nvalue = [1, 3]\nclass = Yes", fillcolor="#7bbeee"] ;
346 -> 348 ;
349 [label="gini = 0.0\nsamples = 12\nvalue = [0, 12]\nclass = Yes", fillcolor="#399de5"] ;
345 -> 349 ;
350 [label="gini = 0.0\nsamples = 1\nvalue = [1, 0]\nclass = No", fillcolor="#e58139"] ;
344 -> 350 ;
351 [label="lead_time <= 8.5\ngini = 0.35\nsamples = 31\nvalue = [24, 7]\nclass = No", fillcolor="#eda673"] ;
339 -> 351 ;
352 [label="local_bo_qty <= 0.5\ngini = 0.111\nsamples = 17\nvalue = [16, 1]\nclass = No", fillcolor="#e78945"] ;
351 -> 352 ;
353 [label="gini = 0.0\nsamples = 16\nvalue = [16, 0]\nclass = No", fillcolor="#e58139"] ;
352 -> 353 ;
354 [label="gini = 0.0\nsamples = 1\nvalue = [0, 1]\nclass = Yes", fillcolor="#399de5"] ;
352 -> 354 ;
355 [label="lead_time <= 10.5\ngini = 0.49\nsamples = 14\nvalue = [8, 6]\nclass = No", fillcolor="#f8e0ce"] ;
351 -> 355 ;
356 [label="gini = 0.0\nsamples = 1\nvalue = [0, 1]\nclass = Yes", fillcolor="#399de5"] ;
355 -> 356 ;
357 [label="perf_12_month_avg <= 0.92\ngini = 0.473\nsamples = 13\nvalue = [8, 5]\nclass = No", fillcolor="#f5d0b5"] ;
355 -> 357 ;
358 [label="ppap_risk_Yes <= 0.5\ngini = 0.444\nsamples = 12\nvalue = [8, 4]\nclass = No", fillcolor="#f2c09c"] ;
357 -> 358 ;
359 [label="gini = 0.0\nsamples = 2\nvalue = [2, 0]\nclass = No", fillcolor="#e58139"] ;
358 -> 359 ;
360 [label="perf_12_month_avg <= 0.865\ngini = 0.48\nsamples = 10\nvalue = [6, 4]\nclass = No", fillcolor="#f6d5bd"] ;
358 -> 360 ;
361 [label="gini = 0.48\nsamples = 5\nvalue = [3, 2]\nclass = No", fillcolor="#f6d5bd"] ;
360 -> 361 ;
362 [label="gini = 0.48\nsamples = 5\nvalue = [3, 2]\nclass = No", fillcolor="#f6d5bd"] ;
360 -> 362 ;
363 [label="gini = 0.0\nsamples = 1\nvalue = [0, 1]\nclass = Yes", fillcolor="#399de5"] ;
357 -> 363 ;
364 [label="in_transit_qty <= 0.5\ngini = 0.495\nsamples = 82\nvalue = [37, 45]\nclass = Yes", fillcolor="#dceefa"] ;
292 -> 364 ;
365 [label="min_bank <= 1.5\ngini = 0.47\nsamples = 69\nvalue = [26, 43]\nclass = Yes", fillcolor="#b1d8f5"] ;
364 -> 365 ;
366 [label="forecast_6_month <= 1.5\ngini = 0.437\nsamples = 62\nvalue = [20, 42]\nclass = Yes", fillcolor="#97ccf1"] ;
365 -> 366 ;
367 [label="perf_6_month_avg <= 0.71\ngini = 0.312\nsamples = 31\nvalue = [6, 25]\nclass = Yes", fillcolor="#69b5eb"] ;
366 -> 367 ;
368 [label="min_bank <= 0.5\ngini = 0.172\nsamples = 21\nvalue = [2, 19]\nclass = Yes", fillcolor="#4ea7e8"] ;
367 -> 368 ;
369 [label="gini = 0.0\nsamples = 11\nvalue = [0, 11]\nclass = Yes", fillcolor="#399de5"] ;
368 -> 369 ;
370 [label="perf_12_month_avg <= 0.405\ngini = 0.32\nsamples = 10\nvalue = [2, 8]\nclass = Yes", fillcolor="#6ab6ec"] ;
368 -> 370 ;
371 [label="gini = 0.0\nsamples = 1\nvalue = [1, 0]\nclass = No", fillcolor="#e58139"] ;
370 -> 371 ;
372 [label="sales_9_month <= 1.5\ngini = 0.198\nsamples = 9\nvalue = [1, 8]\nclass = Yes", fillcolor="#52a9e8"] ;
370 -> 372 ;
373 [label="lead_time <= 8.5\ngini = 0.375\nsamples = 4\nvalue = [1, 3]\nclass = Yes", fillcolor="#7bbeee"] ;
372 -> 373 ;
374 [label="gini = 0.0\nsamples = 1\nvalue = [1, 0]\nclass = No", fillcolor="#e58139"] ;
373 -> 374 ;
375 [label="gini = 0.0\nsamples = 3\nvalue = [0, 3]\nclass = Yes", fillcolor="#399de5"] ;
373 -> 375 ;
376 [label="gini = 0.0\nsamples = 5\nvalue = [0, 5]\nclass = Yes", fillcolor="#399de5"] ;
372 -> 376 ;
377 [label="sales_9_month <= 1.5\ngini = 0.48\nsamples = 10\nvalue = [4, 6]\nclass = Yes", fillcolor="#bddef6"] ;
367 -> 377 ;
378 [label="forecast_9_month <= 1.5\ngini = 0.49\nsamples = 7\nvalue = [4, 3]\nclass = No", fillcolor="#f8e0ce"] ;
377 -> 378 ;
379 [label="perf_12_month_avg <= 0.92\ngini = 0.32\nsamples = 5\nvalue = [4, 1]\nclass = No", fillcolor="#eca06a"] ;
378 -> 379 ;
380 [label="gini = 0.0\nsamples = 4\nvalue = [4, 0]\nclass = No", fillcolor="#e58139"] ;
379 -> 380 ;
381 [label="gini = 0.0\nsamples = 1\nvalue = [0, 1]\nclass = Yes", fillcolor="#399de5"] ;
379 -> 381 ;
382 [label="gini = 0.0\nsamples = 2\nvalue = [0, 2]\nclass = Yes", fillcolor="#399de5"] ;
378 -> 382 ;
383 [label="gini = 0.0\nsamples = 3\nvalue = [0, 3]\nclass = Yes", fillcolor="#399de5"] ;
377 -> 383 ;
384 [label="perf_12_month_avg <= 0.64\ngini = 0.495\nsamples = 31\nvalue = [14, 17]\nclass = Yes", fillcolor="#dceefa"] ;
366 -> 384 ;
385 [label="sales_6_month <= 0.5\ngini = 0.426\nsamples = 13\nvalue = [9, 4]\nclass = No", fillcolor="#f1b991"] ;
384 -> 385 ;
386 [label="gini = 0.0\nsamples = 4\nvalue = [0, 4]\nclass = Yes", fillcolor="#399de5"] ;
385 -> 386 ;
387 [label="gini = 0.0\nsamples = 9\nvalue = [9, 0]\nclass = No", fillcolor="#e58139"] ;
385 -> 387 ;
388 [label="lead_time <= 6.0\ngini = 0.401\nsamples = 18\nvalue = [5, 13]\nclass = Yes", fillcolor="#85c3ef"] ;
384 -> 388 ;
389 [label="gini = 0.0\nsamples = 1\nvalue = [1, 0]\nclass = No", fillcolor="#e58139"] ;
388 -> 389 ;
390 [label="lead_time <= 9.5\ngini = 0.36\nsamples = 17\nvalue = [4, 13]\nclass = Yes", fillcolor="#76bbed"] ;
388 -> 390 ;
391 [label="sales_9_month <= 1.5\ngini = 0.245\nsamples = 14\nvalue = [2, 12]\nclass = Yes", fillcolor="#5aade9"] ;
390 -> 391 ;
392 [label="ppap_risk_Yes <= 0.5\ngini = 0.375\nsamples = 8\nvalue = [2, 6]\nclass = Yes", fillcolor="#7bbeee"] ;
391 -> 392 ;
393 [label="gini = 0.0\nsamples = 2\nvalue = [2, 0]\nclass = No", fillcolor="#e58139"] ;
392 -> 393 ;
394 [label="gini = 0.0\nsamples = 6\nvalue = [0, 6]\nclass = Yes", fillcolor="#399de5"] ;
392 -> 394 ;
395 [label="gini = 0.0\nsamples = 6\nvalue = [0, 6]\nclass = Yes", fillcolor="#399de5"] ;
391 -> 395 ;
396 [label="perf_12_month_avg <= 0.755\ngini = 0.444\nsamples = 3\nvalue = [2, 1]\nclass = No", fillcolor="#f2c09c"] ;
390 -> 396 ;
397 [label="gini = 0.0\nsamples = 1\nvalue = [0, 1]\nclass = Yes", fillcolor="#399de5"] ;
396 -> 397 ;
398 [label="gini = 0.0\nsamples = 2\nvalue = [2, 0]\nclass = No", fillcolor="#e58139"] ;
396 -> 398 ;
399 [label="sales_9_month <= 4.5\ngini = 0.245\nsamples = 7\nvalue = [6, 1]\nclass = No", fillcolor="#e9965a"] ;
365 -> 399 ;
400 [label="gini = 0.0\nsamples = 6\nvalue = [6, 0]\nclass = No", fillcolor="#e58139"] ;
399 -> 400 ;
401 [label="gini = 0.0\nsamples = 1\nvalue = [0, 1]\nclass = Yes", fillcolor="#399de5"] ;
399 -> 401 ;
402 [label="lead_time <= 8.5\ngini = 0.26\nsamples = 13\nvalue = [11, 2]\nclass = No", fillcolor="#ea985d"] ;
364 -> 402 ;
403 [label="gini = 0.0\nsamples = 9\nvalue = [9, 0]\nclass = No", fillcolor="#e58139"] ;
402 -> 403 ;
404 [label="forecast_3_month <= 0.5\ngini = 0.5\nsamples = 4\nvalue = [2, 2]\nclass = No", fillcolor="#ffffff"] ;
402 -> 404 ;
405 [label="gini = 0.0\nsamples = 2\nvalue = [0, 2]\nclass = Yes", fillcolor="#399de5"] ;
404 -> 405 ;
406 [label="gini = 0.0\nsamples = 2\nvalue = [2, 0]\nclass = No", fillcolor="#e58139"] ;
404 -> 406 ;
407 [label="perf_12_month_avg <= 0.33\ngini = 0.251\nsamples = 170\nvalue = [145, 25]\nclass = No", fillcolor="#e9975b"] ;
291 -> 407 ;
408 [label="gini = 0.0\nsamples = 5\nvalue = [0, 5]\nclass = Yes", fillcolor="#399de5"] ;
407 -> 408 ;
409 [label="perf_6_month_avg <= 0.785\ngini = 0.213\nsamples = 165\nvalue = [145, 20]\nclass = No", fillcolor="#e99254"] ;
407 -> 409 ;
410 [label="lead_time <= 6.0\ngini = 0.057\nsamples = 68\nvalue = [66, 2]\nclass = No", fillcolor="#e6853f"] ;
409 -> 410 ;
411 [label="sales_3_month <= 1.5\ngini = 0.346\nsamples = 9\nvalue = [7, 2]\nclass = No", fillcolor="#eca572"] ;
410 -> 411 ;
412 [label="min_bank <= 1.5\ngini = 0.219\nsamples = 8\nvalue = [7, 1]\nclass = No", fillcolor="#e99355"] ;
411 -> 412 ;
413 [label="gini = 0.0\nsamples = 7\nvalue = [7, 0]\nclass = No", fillcolor="#e58139"] ;
412 -> 413 ;
414 [label="gini = 0.0\nsamples = 1\nvalue = [0, 1]\nclass = Yes", fillcolor="#399de5"] ;
412 -> 414 ;
415 [label="gini = 0.0\nsamples = 1\nvalue = [0, 1]\nclass = Yes", fillcolor="#399de5"] ;
411 -> 415 ;
416 [label="gini = 0.0\nsamples = 59\nvalue = [59, 0]\nclass = No", fillcolor="#e58139"] ;
410 -> 416 ;
417 [label="perf_6_month_avg <= 0.805\ngini = 0.302\nsamples = 97\nvalue = [79, 18]\nclass = No", fillcolor="#eb9e66"] ;
409 -> 417 ;
418 [label="lead_time <= 7.0\ngini = 0.5\nsamples = 14\nvalue = [7, 7]\nclass = No", fillcolor="#ffffff"] ;
417 -> 418 ;
419 [label="gini = 0.0\nsamples = 2\nvalue = [2, 0]\nclass = No", fillcolor="#e58139"] ;
418 -> 419 ;
420 [label="sales_3_month <= 0.5\ngini = 0.486\nsamples = 12\nvalue = [5, 7]\nclass = Yes", fillcolor="#c6e3f8"] ;
418 -> 420 ;
421 [label="perf_6_month_avg <= 0.795\ngini = 0.444\nsamples = 6\nvalue = [4, 2]\nclass = No", fillcolor="#f2c09c"] ;
420 -> 421 ;
422 [label="sales_9_month <= 3.0\ngini = 0.444\nsamples = 3\nvalue = [1, 2]\nclass = Yes", fillcolor="#9ccef2"] ;
421 -> 422 ;
423 [label="gini = 0.0\nsamples = 2\nvalue = [0, 2]\nclass = Yes", fillcolor="#399de5"] ;
422 -> 423 ;
424 [label="gini = 0.0\nsamples = 1\nvalue = [1, 0]\nclass = No", fillcolor="#e58139"] ;
422 -> 424 ;
425 [label="gini = 0.0\nsamples = 3\nvalue = [3, 0]\nclass = No", fillcolor="#e58139"] ;
421 -> 425 ;
426 [label="forecast_9_month <= 1.5\ngini = 0.278\nsamples = 6\nvalue = [1, 5]\nclass = Yes", fillcolor="#61b1ea"] ;
420 -> 426 ;
427 [label="gini = 0.0\nsamples = 4\nvalue = [0, 4]\nclass = Yes", fillcolor="#399de5"] ;
426 -> 427 ;
428 [label="perf_12_month_avg <= 0.74\ngini = 0.5\nsamples = 2\nvalue = [1, 1]\nclass = No", fillcolor="#ffffff"] ;
426 -> 428 ;
429 [label="gini = 0.0\nsamples = 1\nvalue = [0, 1]\nclass = Yes", fillcolor="#399de5"] ;
428 -> 429 ;
430 [label="gini = 0.0\nsamples = 1\nvalue = [1, 0]\nclass = No", fillcolor="#e58139"] ;
428 -> 430 ;
431 [label="perf_12_month_avg <= 0.855\ngini = 0.23\nsamples = 83\nvalue = [72, 11]\nclass = No", fillcolor="#e99457"] ;
417 -> 431 ;
432 [label="gini = 0.0\nsamples = 29\nvalue = [29, 0]\nclass = No", fillcolor="#e58139"] ;
431 -> 432 ;
433 [label="sales_9_month <= 0.5\ngini = 0.324\nsamples = 54\nvalue = [43, 11]\nclass = No", fillcolor="#eca16c"] ;
431 -> 433 ;
434 [label="gini = 0.0\nsamples = 2\nvalue = [0, 2]\nclass = Yes", fillcolor="#399de5"] ;
433 -> 434 ;
435 [label="sales_3_month <= 1.5\ngini = 0.286\nsamples = 52\nvalue = [43, 9]\nclass = No", fillcolor="#ea9b62"] ;
433 -> 435 ;
436 [label="perf_6_month_avg <= 0.995\ngini = 0.219\nsamples = 48\nvalue = [42, 6]\nclass = No", fillcolor="#e99355"] ;
435 -> 436 ;
437 [label="sales_3_month <= 0.5\ngini = 0.136\nsamples = 41\nvalue = [38, 3]\nclass = No", fillcolor="#e78b49"] ;
436 -> 437 ;
438 [label="gini = 0.0\nsamples = 18\nvalue = [18, 0]\nclass = No", fillcolor="#e58139"] ;
437 -> 438 ;
439 [label="forecast_6_month <= 0.5\ngini = 0.227\nsamples = 23\nvalue = [20, 3]\nclass = No", fillcolor="#e99457"] ;
437 -> 439 ;
440 [label="gini = 0.0\nsamples = 1\nvalue = [0, 1]\nclass = Yes", fillcolor="#399de5"] ;
439 -> 440 ;
441 [label="sales_9_month <= 2.5\ngini = 0.165\nsamples = 22\nvalue = [20, 2]\nclass = No", fillcolor="#e88e4d"] ;
439 -> 441 ;
442 [label="perf_12_month_avg <= 0.91\ngini = 0.105\nsamples = 18\nvalue = [17, 1]\nclass = No", fillcolor="#e78845"] ;
441 -> 442 ;
443 [label="sales_9_month <= 1.5\ngini = 0.245\nsamples = 7\nvalue = [6, 1]\nclass = No", fillcolor="#e9965a"] ;
442 -> 443 ;
444 [label="forecast_3_month <= 0.5\ngini = 0.444\nsamples = 3\nvalue = [2, 1]\nclass = No", fillcolor="#f2c09c"] ;
443 -> 444 ;
445 [label="gini = 0.0\nsamples = 1\nvalue = [1, 0]\nclass = No", fillcolor="#e58139"] ;
444 -> 445 ;
446 [label="perf_6_month_avg <= 0.88\ngini = 0.5\nsamples = 2\nvalue = [1, 1]\nclass = No", fillcolor="#ffffff"] ;
444 -> 446 ;
447 [label="gini = 0.0\nsamples = 1\nvalue = [1, 0]\nclass = No", fillcolor="#e58139"] ;
446 -> 447 ;
448 [label="gini = 0.0\nsamples = 1\nvalue = [0, 1]\nclass = Yes", fillcolor="#399de5"] ;
446 -> 448 ;
449 [label="gini = 0.0\nsamples = 4\nvalue = [4, 0]\nclass = No", fillcolor="#e58139"] ;
443 -> 449 ;
450 [label="gini = 0.0\nsamples = 11\nvalue = [11, 0]\nclass = No", fillcolor="#e58139"] ;
442 -> 450 ;
451 [label="in_transit_qty <= 0.5\ngini = 0.375\nsamples = 4\nvalue = [3, 1]\nclass = No", fillcolor="#eeab7b"] ;
441 -> 451 ;
452 [label="forecast_6_month <= 1.5\ngini = 0.5\nsamples = 2\nvalue = [1, 1]\nclass = No", fillcolor="#ffffff"] ;
451 -> 452 ;
453 [label="gini = 0.0\nsamples = 1\nvalue = [0, 1]\nclass = Yes", fillcolor="#399de5"] ;
452 -> 453 ;
454 [label="gini = 0.0\nsamples = 1\nvalue = [1, 0]\nclass = No", fillcolor="#e58139"] ;
452 -> 454 ;
455 [label="gini = 0.0\nsamples = 2\nvalue = [2, 0]\nclass = No", fillcolor="#e58139"] ;
451 -> 455 ;
456 [label="sales_9_month <= 1.5\ngini = 0.49\nsamples = 7\nvalue = [4, 3]\nclass = No", fillcolor="#f8e0ce"] ;
436 -> 456 ;
457 [label="gini = 0.0\nsamples = 3\nvalue = [3, 0]\nclass = No", fillcolor="#e58139"] ;
456 -> 457 ;
458 [label="in_transit_qty <= 0.5\ngini = 0.375\nsamples = 4\nvalue = [1, 3]\nclass = Yes", fillcolor="#7bbeee"] ;
456 -> 458 ;
459 [label="gini = 0.0\nsamples = 3\nvalue = [0, 3]\nclass = Yes", fillcolor="#399de5"] ;
458 -> 459 ;
460 [label="gini = 0.0\nsamples = 1\nvalue = [1, 0]\nclass = No", fillcolor="#e58139"] ;
458 -> 460 ;
461 [label="in_transit_qty <= 0.5\ngini = 0.375\nsamples = 4\nvalue = [1, 3]\nclass = Yes", fillcolor="#7bbeee"] ;
435 -> 461 ;
462 [label="gini = 0.0\nsamples = 1\nvalue = [1, 0]\nclass = No", fillcolor="#e58139"] ;
461 -> 462 ;
463 [label="gini = 0.0\nsamples = 3\nvalue = [0, 3]\nclass = Yes", fillcolor="#399de5"] ;
461 -> 463 ;
464 [label="national_inv <= 0.5\ngini = 0.461\nsamples = 133\nvalue = [48, 85]\nclass = Yes", fillcolor="#a9d4f4"] ;
290 -> 464 ;
465 [label="lead_time <= 8.5\ngini = 0.364\nsamples = 71\nvalue = [17, 54]\nclass = Yes", fillcolor="#77bced"] ;
464 -> 465 ;
466 [label="perf_12_month_avg <= 0.995\ngini = 0.265\nsamples = 51\nvalue = [8, 43]\nclass = Yes", fillcolor="#5eafea"] ;
465 -> 466 ;
467 [label="perf_12_month_avg <= 0.755\ngini = 0.241\nsamples = 50\nvalue = [7, 43]\nclass = Yes", fillcolor="#59ade9"] ;
466 -> 467 ;
468 [label="in_transit_qty <= 0.5\ngini = 0.426\nsamples = 13\nvalue = [4, 9]\nclass = Yes", fillcolor="#91c9f1"] ;
467 -> 468 ;
469 [label="perf_6_month_avg <= 0.815\ngini = 0.298\nsamples = 11\nvalue = [2, 9]\nclass = Yes", fillcolor="#65b3eb"] ;
468 -> 469 ;
470 [label="perf_6_month_avg <= 0.62\ngini = 0.18\nsamples = 10\nvalue = [1, 9]\nclass = Yes", fillcolor="#4fa8e8"] ;
469 -> 470 ;
471 [label="gini = 0.0\nsamples = 6\nvalue = [0, 6]\nclass = Yes", fillcolor="#399de5"] ;
470 -> 471 ;
472 [label="forecast_6_month <= 1.5\ngini = 0.375\nsamples = 4\nvalue = [1, 3]\nclass = Yes", fillcolor="#7bbeee"] ;
470 -> 472 ;
473 [label="gini = 0.0\nsamples = 2\nvalue = [0, 2]\nclass = Yes", fillcolor="#399de5"] ;
472 -> 473 ;
474 [label="perf_12_month_avg <= 0.635\ngini = 0.5\nsamples = 2\nvalue = [1, 1]\nclass = No", fillcolor="#ffffff"] ;
472 -> 474 ;
475 [label="gini = 0.0\nsamples = 1\nvalue = [0, 1]\nclass = Yes", fillcolor="#399de5"] ;
474 -> 475 ;
476 [label="gini = 0.0\nsamples = 1\nvalue = [1, 0]\nclass = No", fillcolor="#e58139"] ;
474 -> 476 ;
477 [label="gini = 0.0\nsamples = 1\nvalue = [1, 0]\nclass = No", fillcolor="#e58139"] ;
469 -> 477 ;
478 [label="gini = 0.0\nsamples = 2\nvalue = [2, 0]\nclass = No", fillcolor="#e58139"] ;
468 -> 478 ;
479 [label="perf_6_month_avg <= 0.915\ngini = 0.149\nsamples = 37\nvalue = [3, 34]\nclass = Yes", fillcolor="#4aa6e7"] ;
467 -> 479 ;
480 [label="gini = 0.0\nsamples = 21\nvalue = [0, 21]\nclass = Yes", fillcolor="#399de5"] ;
479 -> 480 ;
481 [label="perf_6_month_avg <= 0.955\ngini = 0.305\nsamples = 16\nvalue = [3, 13]\nclass = Yes", fillcolor="#67b4eb"] ;
479 -> 481 ;
482 [label="forecast_6_month <= 1.5\ngini = 0.444\nsamples = 3\nvalue = [2, 1]\nclass = No", fillcolor="#f2c09c"] ;
481 -> 482 ;
483 [label="gini = 0.0\nsamples = 2\nvalue = [2, 0]\nclass = No", fillcolor="#e58139"] ;
482 -> 483 ;
484 [label="gini = 0.0\nsamples = 1\nvalue = [0, 1]\nclass = Yes", fillcolor="#399de5"] ;
482 -> 484 ;
485 [label="perf_12_month_avg <= 0.975\ngini = 0.142\nsamples = 13\nvalue = [1, 12]\nclass = Yes", fillcolor="#49a5e7"] ;
481 -> 485 ;
486 [label="gini = 0.0\nsamples = 9\nvalue = [0, 9]\nclass = Yes", fillcolor="#399de5"] ;
485 -> 486 ;
487 [label="perf_12_month_avg <= 0.985\ngini = 0.375\nsamples = 4\nvalue = [1, 3]\nclass = Yes", fillcolor="#7bbeee"] ;
485 -> 487 ;
488 [label="gini = 0.0\nsamples = 1\nvalue = [1, 0]\nclass = No", fillcolor="#e58139"] ;
487 -> 488 ;
489 [label="gini = 0.0\nsamples = 3\nvalue = [0, 3]\nclass = Yes", fillcolor="#399de5"] ;
487 -> 489 ;
490 [label="gini = 0.0\nsamples = 1\nvalue = [1, 0]\nclass = No", fillcolor="#e58139"] ;
466 -> 490 ;
491 [label="min_bank <= 2.5\ngini = 0.495\nsamples = 20\nvalue = [9, 11]\nclass = Yes", fillcolor="#dbedfa"] ;
465 -> 491 ;
492 [label="min_bank <= 1.5\ngini = 0.498\nsamples = 17\nvalue = [9, 8]\nclass = No", fillcolor="#fcf1e9"] ;
491 -> 492 ;
493 [label="perf_12_month_avg <= 0.805\ngini = 0.473\nsamples = 13\nvalue = [5, 8]\nclass = Yes", fillcolor="#b5daf5"] ;
492 -> 493 ;
494 [label="min_bank <= 0.5\ngini = 0.245\nsamples = 7\nvalue = [1, 6]\nclass = Yes", fillcolor="#5aade9"] ;
493 -> 494 ;
495 [label="gini = 0.0\nsamples = 5\nvalue = [0, 5]\nclass = Yes", fillcolor="#399de5"] ;
494 -> 495 ;
496 [label="sales_6_month <= 1.5\ngini = 0.5\nsamples = 2\nvalue = [1, 1]\nclass = No", fillcolor="#ffffff"] ;
494 -> 496 ;
497 [label="gini = 0.0\nsamples = 1\nvalue = [0, 1]\nclass = Yes", fillcolor="#399de5"] ;
496 -> 497 ;
498 [label="gini = 0.0\nsamples = 1\nvalue = [1, 0]\nclass = No", fillcolor="#e58139"] ;
496 -> 498 ;
499 [label="forecast_6_month <= 1.5\ngini = 0.444\nsamples = 6\nvalue = [4, 2]\nclass = No", fillcolor="#f2c09c"] ;
493 -> 499 ;
500 [label="gini = 0.0\nsamples = 3\nvalue = [3, 0]\nclass = No", fillcolor="#e58139"] ;
499 -> 500 ;
501 [label="sales_9_month <= 3.5\ngini = 0.444\nsamples = 3\nvalue = [1, 2]\nclass = Yes", fillcolor="#9ccef2"] ;
499 -> 501 ;
502 [label="gini = 0.0\nsamples = 2\nvalue = [0, 2]\nclass = Yes", fillcolor="#399de5"] ;
501 -> 502 ;
503 [label="gini = 0.0\nsamples = 1\nvalue = [1, 0]\nclass = No", fillcolor="#e58139"] ;
501 -> 503 ;
504 [label="gini = 0.0\nsamples = 4\nvalue = [4, 0]\nclass = No", fillcolor="#e58139"] ;
492 -> 504 ;
505 [label="gini = 0.0\nsamples = 3\nvalue = [0, 3]\nclass = Yes", fillcolor="#399de5"] ;
491 -> 505 ;
506 [label="sales_9_month <= 11.5\ngini = 0.5\nsamples = 62\nvalue = [31, 31]\nclass = No", fillcolor="#ffffff"] ;
464 -> 506 ;
507 [label="forecast_6_month <= 0.5\ngini = 0.496\nsamples = 57\nvalue = [31, 26]\nclass = No", fillcolor="#fbebdf"] ;
506 -> 507 ;
508 [label="perf_12_month_avg <= 0.68\ngini = 0.346\nsamples = 9\nvalue = [2, 7]\nclass = Yes", fillcolor="#72b9ec"] ;
507 -> 508 ;
509 [label="gini = 0.0\nsamples = 1\nvalue = [1, 0]\nclass = No", fillcolor="#e58139"] ;
508 -> 509 ;
510 [label="perf_12_month_avg <= 0.835\ngini = 0.219\nsamples = 8\nvalue = [1, 7]\nclass = Yes", fillcolor="#55abe9"] ;
508 -> 510 ;
511 [label="gini = 0.0\nsamples = 7\nvalue = [0, 7]\nclass = Yes", fillcolor="#399de5"] ;
510 -> 511 ;
512 [label="gini = 0.0\nsamples = 1\nvalue = [1, 0]\nclass = No", fillcolor="#e58139"] ;
510 -> 512 ;
513 [label="sales_6_month <= 2.5\ngini = 0.478\nsamples = 48\nvalue = [29, 19]\nclass = No", fillcolor="#f6d4bb"] ;
507 -> 513 ;
514 [label="lead_time <= 3.0\ngini = 0.34\nsamples = 23\nvalue = [18, 5]\nclass = No", fillcolor="#eca470"] ;
513 -> 514 ;
515 [label="sales_3_month <= 1.5\ngini = 0.444\nsamples = 3\nvalue = [1, 2]\nclass = Yes", fillcolor="#9ccef2"] ;
514 -> 515 ;
516 [label="gini = 0.0\nsamples = 2\nvalue = [0, 2]\nclass = Yes", fillcolor="#399de5"] ;
515 -> 516 ;
517 [label="gini = 0.0\nsamples = 1\nvalue = [1, 0]\nclass = No", fillcolor="#e58139"] ;
515 -> 517 ;
518 [label="lead_time <= 8.5\ngini = 0.255\nsamples = 20\nvalue = [17, 3]\nclass = No", fillcolor="#ea975c"] ;
514 -> 518 ;
519 [label="gini = 0.0\nsamples = 11\nvalue = [11, 0]\nclass = No", fillcolor="#e58139"] ;
518 -> 519 ;
520 [label="min_bank <= 0.5\ngini = 0.444\nsamples = 9\nvalue = [6, 3]\nclass = No", fillcolor="#f2c09c"] ;
518 -> 520 ;
521 [label="lead_time <= 10.5\ngini = 0.375\nsamples = 4\nvalue = [1, 3]\nclass = Yes", fillcolor="#7bbeee"] ;
520 -> 521 ;
522 [label="gini = 0.0\nsamples = 2\nvalue = [0, 2]\nclass = Yes", fillcolor="#399de5"] ;
521 -> 522 ;
523 [label="forecast_6_month <= 1.5\ngini = 0.5\nsamples = 2\nvalue = [1, 1]\nclass = No", fillcolor="#ffffff"] ;
521 -> 523 ;
524 [label="gini = 0.0\nsamples = 1\nvalue = [0, 1]\nclass = Yes", fillcolor="#399de5"] ;
523 -> 524 ;
525 [label="gini = 0.0\nsamples = 1\nvalue = [1, 0]\nclass = No", fillcolor="#e58139"] ;
523 -> 525 ;
526 [label="gini = 0.0\nsamples = 5\nvalue = [5, 0]\nclass = No", fillcolor="#e58139"] ;
520 -> 526 ;
527 [label="forecast_3_month <= 0.5\ngini = 0.493\nsamples = 25\nvalue = [11, 14]\nclass = Yes", fillcolor="#d5eaf9"] ;
513 -> 527 ;
528 [label="gini = 0.0\nsamples = 3\nvalue = [3, 0]\nclass = No", fillcolor="#e58139"] ;
527 -> 528 ;
529 [label="perf_12_month_avg <= 0.48\ngini = 0.463\nsamples = 22\nvalue = [8, 14]\nclass = Yes", fillcolor="#aad5f4"] ;
527 -> 529 ;
530 [label="gini = 0.0\nsamples = 3\nvalue = [3, 0]\nclass = No", fillcolor="#e58139"] ;
529 -> 530 ;
531 [label="lead_time <= 8.5\ngini = 0.388\nsamples = 19\nvalue = [5, 14]\nclass = Yes", fillcolor="#80c0ee"] ;
529 -> 531 ;
532 [label="perf_12_month_avg <= 0.96\ngini = 0.291\nsamples = 17\nvalue = [3, 14]\nclass = Yes", fillcolor="#63b2eb"] ;
531 -> 532 ;
533 [label="sales_3_month <= 3.5\ngini = 0.219\nsamples = 16\nvalue = [2, 14]\nclass = Yes", fillcolor="#55abe9"] ;
532 -> 533 ;
534 [label="perf_6_month_avg <= 0.9\ngini = 0.133\nsamples = 14\nvalue = [1, 13]\nclass = Yes", fillcolor="#48a5e7"] ;
533 -> 534 ;
535 [label="gini = 0.0\nsamples = 10\nvalue = [0, 10]\nclass = Yes", fillcolor="#399de5"] ;
534 -> 535 ;
536 [label="perf_6_month_avg <= 0.96\ngini = 0.375\nsamples = 4\nvalue = [1, 3]\nclass = Yes", fillcolor="#7bbeee"] ;
534 -> 536 ;
537 [label="gini = 0.0\nsamples = 1\nvalue = [1, 0]\nclass = No", fillcolor="#e58139"] ;
536 -> 537 ;
538 [label="gini = 0.0\nsamples = 3\nvalue = [0, 3]\nclass = Yes", fillcolor="#399de5"] ;
536 -> 538 ;
539 [label="sales_6_month <= 6.0\ngini = 0.5\nsamples = 2\nvalue = [1, 1]\nclass = No", fillcolor="#ffffff"] ;
533 -> 539 ;
540 [label="gini = 0.0\nsamples = 1\nvalue = [1, 0]\nclass = No", fillcolor="#e58139"] ;
539 -> 540 ;
541 [label="gini = 0.0\nsamples = 1\nvalue = [0, 1]\nclass = Yes", fillcolor="#399de5"] ;
539 -> 541 ;
542 [label="gini = 0.0\nsamples = 1\nvalue = [1, 0]\nclass = No", fillcolor="#e58139"] ;
532 -> 542 ;
543 [label="gini = 0.0\nsamples = 2\nvalue = [2, 0]\nclass = No", fillcolor="#e58139"] ;
531 -> 543 ;
544 [label="gini = 0.0\nsamples = 5\nvalue = [0, 5]\nclass = Yes", fillcolor="#399de5"] ;
506 -> 544 ;
545 [label="sales_6_month <= 2.5\ngini = 0.415\nsamples = 5223\nvalue = [1536, 3687]\nclass = Yes", fillcolor="#8bc6f0"] ;
1 -> 545 ;
546 [label="forecast_3_month <= 15.5\ngini = 0.498\nsamples = 2106\nvalue = [994, 1112]\nclass = Yes", fillcolor="#eaf5fc"] ;
545 -> 546 ;
547 [label="sales_9_month <= 0.5\ngini = 0.497\nsamples = 1435\nvalue = [776, 659]\nclass = No", fillcolor="#fbece1"] ;
546 -> 547 ;
548 [label="perf_6_month_avg <= 0.67\ngini = 0.481\nsamples = 1013\nvalue = [606, 407]\nclass = No", fillcolor="#f6d6be"] ;
547 -> 548 ;
549 [label="ppap_risk_Yes <= 0.5\ngini = 0.5\nsamples = 458\nvalue = [229, 229]\nclass = No", fillcolor="#ffffff"] ;
548 -> 549 ;
550 [label="perf_6_month_avg <= 0.615\ngini = 0.49\nsamples = 292\nvalue = [167, 125]\nclass = No", fillcolor="#f8dfcd"] ;
549 -> 550 ;
551 [label="forecast_3_month <= 4.5\ngini = 0.477\nsamples = 255\nvalue = [155, 100]\nclass = No", fillcolor="#f6d2b9"] ;
550 -> 551 ;
552 [label="perf_12_month_avg <= 0.695\ngini = 0.38\nsamples = 51\nvalue = [38, 13]\nclass = No", fillcolor="#eeac7d"] ;
551 -> 552 ;
553 [label="perf_12_month_avg <= -49.5\ngini = 0.348\nsamples = 49\nvalue = [38, 11]\nclass = No", fillcolor="#eda572"] ;
552 -> 553 ;
554 [label="min_bank <= 0.5\ngini = 0.444\nsamples = 3\nvalue = [1, 2]\nclass = Yes", fillcolor="#9ccef2"] ;
553 -> 554 ;
555 [label="gini = 0.0\nsamples = 1\nvalue = [1, 0]\nclass = No", fillcolor="#e58139"] ;
554 -> 555 ;
556 [label="gini = 0.0\nsamples = 2\nvalue = [0, 2]\nclass = Yes", fillcolor="#399de5"] ;
554 -> 556 ;
557 [label="pieces_past_due <= 2.5\ngini = 0.315\nsamples = 46\nvalue = [37, 9]\nclass = No", fillcolor="#eba069"] ;
553 -> 557 ;
558 [label="forecast_6_month <= 2.5\ngini = 0.292\nsamples = 45\nvalue = [37, 8]\nclass = No", fillcolor="#eb9c64"] ;
557 -> 558 ;
559 [label="gini = 0.0\nsamples = 1\nvalue = [0, 1]\nclass = Yes", fillcolor="#399de5"] ;
558 -> 559 ;
560 [label="perf_12_month_avg <= 0.37\ngini = 0.268\nsamples = 44\nvalue = [37, 7]\nclass = No", fillcolor="#ea995e"] ;
558 -> 560 ;
561 [label="lead_time <= 3.0\ngini = 0.355\nsamples = 26\nvalue = [20, 6]\nclass = No", fillcolor="#eda774"] ;
560 -> 561 ;
562 [label="perf_12_month_avg <= 0.07\ngini = 0.444\nsamples = 15\nvalue = [10, 5]\nclass = No", fillcolor="#f2c09c"] ;
561 -> 562 ;
563 [label="gini = 0.0\nsamples = 4\nvalue = [4, 0]\nclass = No", fillcolor="#e58139"] ;
562 -> 563 ;
564 [label="forecast_9_month <= 7.5\ngini = 0.496\nsamples = 11\nvalue = [6, 5]\nclass = No", fillcolor="#fbeade"] ;
562 -> 564 ;
565 [label="perf_6_month_avg <= 0.305\ngini = 0.48\nsamples = 10\nvalue = [6, 4]\nclass = No", fillcolor="#f6d5bd"] ;
564 -> 565 ;
566 [label="gini = 0.0\nsamples = 1\nvalue = [0, 1]\nclass = Yes", fillcolor="#399de5"] ;
565 -> 566 ;
567 [label="min_bank <= 0.5\ngini = 0.444\nsamples = 9\nvalue = [6, 3]\nclass = No", fillcolor="#f2c09c"] ;
565 -> 567 ;
568 [label="deck_risk_Yes <= 0.5\ngini = 0.49\nsamples = 7\nvalue = [4, 3]\nclass = No", fillcolor="#f8e0ce"] ;
567 -> 568 ;
569 [label="gini = 0.0\nsamples = 2\nvalue = [0, 2]\nclass = Yes", fillcolor="#399de5"] ;
568 -> 569 ;
570 [label="forecast_6_month <= 5.0\ngini = 0.32\nsamples = 5\nvalue = [4, 1]\nclass = No", fillcolor="#eca06a"] ;
568 -> 570 ;
571 [label="gini = 0.0\nsamples = 3\nvalue = [3, 0]\nclass = No", fillcolor="#e58139"] ;
570 -> 571 ;
572 [label="gini = 0.5\nsamples = 2\nvalue = [1, 1]\nclass = No", fillcolor="#ffffff"] ;
570 -> 572 ;
573 [label="gini = 0.0\nsamples = 2\nvalue = [2, 0]\nclass = No", fillcolor="#e58139"] ;
567 -> 573 ;
574 [label="gini = 0.0\nsamples = 1\nvalue = [0, 1]\nclass = Yes", fillcolor="#399de5"] ;
564 -> 574 ;
575 [label="forecast_3_month <= 2.5\ngini = 0.165\nsamples = 11\nvalue = [10, 1]\nclass = No", fillcolor="#e88e4d"] ;
561 -> 575 ;
576 [label="gini = 0.0\nsamples = 1\nvalue = [0, 1]\nclass = Yes", fillcolor="#399de5"] ;
575 -> 576 ;
577 [label="gini = 0.0\nsamples = 10\nvalue = [10, 0]\nclass = No", fillcolor="#e58139"] ;
575 -> 577 ;
578 [label="perf_12_month_avg <= 0.55\ngini = 0.105\nsamples = 18\nvalue = [17, 1]\nclass = No", fillcolor="#e78845"] ;
560 -> 578 ;
579 [label="gini = 0.0\nsamples = 13\nvalue = [13, 0]\nclass = No", fillcolor="#e58139"] ;
578 -> 579 ;
580 [label="forecast_6_month <= 5.0\ngini = 0.32\nsamples = 5\nvalue = [4, 1]\nclass = No", fillcolor="#eca06a"] ;
578 -> 580 ;
581 [label="in_transit_qty <= 2.5\ngini = 0.5\nsamples = 2\nvalue = [1, 1]\nclass = No", fillcolor="#ffffff"] ;
580 -> 581 ;
582 [label="gini = 0.0\nsamples = 1\nvalue = [0, 1]\nclass = Yes", fillcolor="#399de5"] ;
581 -> 582 ;
583 [label="gini = 0.0\nsamples = 1\nvalue = [1, 0]\nclass = No", fillcolor="#e58139"] ;
581 -> 583 ;
584 [label="gini = 0.0\nsamples = 3\nvalue = [3, 0]\nclass = No", fillcolor="#e58139"] ;
580 -> 584 ;
585 [label="gini = 0.0\nsamples = 1\nvalue = [0, 1]\nclass = Yes", fillcolor="#399de5"] ;
557 -> 585 ;
586 [label="gini = 0.0\nsamples = 2\nvalue = [0, 2]\nclass = Yes", fillcolor="#399de5"] ;
552 -> 586 ;
587 [label="min_bank <= 1.5\ngini = 0.489\nsamples = 204\nvalue = [117, 87]\nclass = No", fillcolor="#f8dfcc"] ;
551 -> 587 ;
588 [label="perf_12_month_avg <= 0.095\ngini = 0.492\nsamples = 200\nvalue = [113, 87]\nclass = No", fillcolor="#f9e2d1"] ;
587 -> 588 ;
589 [label="lead_time <= 3.5\ngini = 0.432\nsamples = 38\nvalue = [26, 12]\nclass = No", fillcolor="#f1bb94"] ;
588 -> 589 ;
590 [label="forecast_6_month <= 5.5\ngini = 0.342\nsamples = 32\nvalue = [25, 7]\nclass = No", fillcolor="#eca470"] ;
589 -> 590 ;
591 [label="perf_12_month_avg <= 0.005\ngini = 0.48\nsamples = 5\nvalue = [2, 3]\nclass = Yes", fillcolor="#bddef6"] ;
590 -> 591 ;
592 [label="gini = 0.0\nsamples = 3\nvalue = [0, 3]\nclass = Yes", fillcolor="#399de5"] ;
591 -> 592 ;
593 [label="gini = 0.0\nsamples = 2\nvalue = [2, 0]\nclass = No", fillcolor="#e58139"] ;
591 -> 593 ;
594 [label="forecast_3_month <= 9.0\ngini = 0.252\nsamples = 27\nvalue = [23, 4]\nclass = No", fillcolor="#ea975b"] ;
590 -> 594 ;
595 [label="gini = 0.0\nsamples = 7\nvalue = [7, 0]\nclass = No", fillcolor="#e58139"] ;
594 -> 595 ;
596 [label="forecast_6_month <= 12.5\ngini = 0.32\nsamples = 20\nvalue = [16, 4]\nclass = No", fillcolor="#eca06a"] ;
594 -> 596 ;
597 [label="forecast_6_month <= 11.5\ngini = 0.391\nsamples = 15\nvalue = [11, 4]\nclass = No", fillcolor="#eeaf81"] ;
596 -> 597 ;
598 [label="min_bank <= 0.5\ngini = 0.337\nsamples = 14\nvalue = [11, 3]\nclass = No", fillcolor="#eca36f"] ;
597 -> 598 ;
599 [label="deck_risk_Yes <= 0.5\ngini = 0.397\nsamples = 11\nvalue = [8, 3]\nclass = No", fillcolor="#efb083"] ;
598 -> 599 ;
600 [label="gini = 0.0\nsamples = 3\nvalue = [3, 0]\nclass = No", fillcolor="#e58139"] ;
599 -> 600 ;
601 [label="perf_6_month_avg <= -49.5\ngini = 0.469\nsamples = 8\nvalue = [5, 3]\nclass = No", fillcolor="#f5cdb0"] ;
599 -> 601 ;
602 [label="gini = 0.0\nsamples = 1\nvalue = [1, 0]\nclass = No", fillcolor="#e58139"] ;
601 -> 602 ;
603 [label="national_inv <= 0.5\ngini = 0.49\nsamples = 7\nvalue = [4, 3]\nclass = No", fillcolor="#f8e0ce"] ;
601 -> 603 ;
604 [label="in_transit_qty <= 2.5\ngini = 0.5\nsamples = 6\nvalue = [3, 3]\nclass = No", fillcolor="#ffffff"] ;
603 -> 604 ;
605 [label="forecast_6_month <= 10.5\ngini = 0.48\nsamples = 5\nvalue = [2, 3]\nclass = Yes", fillcolor="#bddef6"] ;
604 -> 605 ;
606 [label="gini = 0.0\nsamples = 1\nvalue = [0, 1]\nclass = Yes", fillcolor="#399de5"] ;
605 -> 606 ;
607 [label="gini = 0.5\nsamples = 4\nvalue = [2, 2]\nclass = No", fillcolor="#ffffff"] ;
605 -> 607 ;
608 [label="gini = 0.0\nsamples = 1\nvalue = [1, 0]\nclass = No", fillcolor="#e58139"] ;
604 -> 608 ;
609 [label="gini = 0.0\nsamples = 1\nvalue = [1, 0]\nclass = No", fillcolor="#e58139"] ;
603 -> 609 ;
610 [label="gini = 0.0\nsamples = 3\nvalue = [3, 0]\nclass = No", fillcolor="#e58139"] ;
598 -> 610 ;
611 [label="gini = 0.0\nsamples = 1\nvalue = [0, 1]\nclass = Yes", fillcolor="#399de5"] ;
597 -> 611 ;
612 [label="gini = 0.0\nsamples = 5\nvalue = [5, 0]\nclass = No", fillcolor="#e58139"] ;
596 -> 612 ;
613 [label="deck_risk_Yes <= 0.5\ngini = 0.278\nsamples = 6\nvalue = [1, 5]\nclass = Yes", fillcolor="#61b1ea"] ;
589 -> 613 ;
614 [label="gini = 0.0\nsamples = 4\nvalue = [0, 4]\nclass = Yes", fillcolor="#399de5"] ;
613 -> 614 ;
615 [label="forecast_3_month <= 9.5\ngini = 0.5\nsamples = 2\nvalue = [1, 1]\nclass = No", fillcolor="#ffffff"] ;
613 -> 615 ;
616 [label="gini = 0.0\nsamples = 1\nvalue = [0, 1]\nclass = Yes", fillcolor="#399de5"] ;
615 -> 616 ;
617 [label="gini = 0.0\nsamples = 1\nvalue = [1, 0]\nclass = No", fillcolor="#e58139"] ;
615 -> 617 ;
618 [label="perf_6_month_avg <= 0.21\ngini = 0.497\nsamples = 162\nvalue = [87, 75]\nclass = No", fillcolor="#fbeee4"] ;
588 -> 618 ;
619 [label="deck_risk_Yes <= 0.5\ngini = 0.358\nsamples = 30\nvalue = [7, 23]\nclass = Yes", fillcolor="#75bbed"] ;
618 -> 619 ;
620 [label="perf_12_month_avg <= 0.125\ngini = 0.49\nsamples = 7\nvalue = [4, 3]\nclass = No", fillcolor="#f8e0ce"] ;
619 -> 620 ;
621 [label="gini = 0.0\nsamples = 2\nvalue = [0, 2]\nclass = Yes", fillcolor="#399de5"] ;
620 -> 621 ;
622 [label="pieces_past_due <= 1.0\ngini = 0.32\nsamples = 5\nvalue = [4, 1]\nclass = No", fillcolor="#eca06a"] ;
620 -> 622 ;
623 [label="gini = 0.0\nsamples = 2\nvalue = [2, 0]\nclass = No", fillcolor="#e58139"] ;
622 -> 623 ;
624 [label="gini = 0.444\nsamples = 3\nvalue = [2, 1]\nclass = No", fillcolor="#f2c09c"] ;
622 -> 624 ;
625 [label="perf_12_month_avg <= 0.135\ngini = 0.227\nsamples = 23\nvalue = [3, 20]\nclass = Yes", fillcolor="#57ace9"] ;
619 -> 625 ;
626 [label="perf_6_month_avg <= 0.11\ngini = 0.5\nsamples = 2\nvalue = [1, 1]\nclass = No", fillcolor="#ffffff"] ;
625 -> 626 ;
627 [label="gini = 0.0\nsamples = 1\nvalue = [1, 0]\nclass = No", fillcolor="#e58139"] ;
626 -> 627 ;
628 [label="gini = 0.0\nsamples = 1\nvalue = [0, 1]\nclass = Yes", fillcolor="#399de5"] ;
626 -> 628 ;
629 [label="pieces_past_due <= 1.0\ngini = 0.172\nsamples = 21\nvalue = [2, 19]\nclass = Yes", fillcolor="#4ea7e8"] ;
625 -> 629 ;
630 [label="forecast_6_month <= 6.5\ngini = 0.1\nsamples = 19\nvalue = [1, 18]\nclass = Yes", fillcolor="#44a2e6"] ;
629 -> 630 ;
631 [label="forecast_6_month <= 5.5\ngini = 0.444\nsamples = 3\nvalue = [1, 2]\nclass = Yes", fillcolor="#9ccef2"] ;
630 -> 631 ;
632 [label="gini = 0.0\nsamples = 2\nvalue = [0, 2]\nclass = Yes", fillcolor="#399de5"] ;
631 -> 632 ;
633 [label="gini = 0.0\nsamples = 1\nvalue = [1, 0]\nclass = No", fillcolor="#e58139"] ;
631 -> 633 ;
634 [label="gini = 0.0\nsamples = 16\nvalue = [0, 16]\nclass = Yes", fillcolor="#399de5"] ;
630 -> 634 ;
635 [label="perf_12_month_avg <= 0.265\ngini = 0.5\nsamples = 2\nvalue = [1, 1]\nclass = No", fillcolor="#ffffff"] ;
629 -> 635 ;
636 [label="gini = 0.0\nsamples = 1\nvalue = [1, 0]\nclass = No", fillcolor="#e58139"] ;
635 -> 636 ;
637 [label="gini = 0.0\nsamples = 1\nvalue = [0, 1]\nclass = Yes", fillcolor="#399de5"] ;
635 -> 637 ;
638 [label="min_bank <= 0.5\ngini = 0.478\nsamples = 132\nvalue = [80, 52]\nclass = No", fillcolor="#f6d3ba"] ;
618 -> 638 ;
639 [label="perf_6_month_avg <= 0.375\ngini = 0.461\nsamples = 114\nvalue = [73, 41]\nclass = No", fillcolor="#f4c8a8"] ;
638 -> 639 ;
640 [label="forecast_6_month <= 7.5\ngini = 0.32\nsamples = 35\nvalue = [28, 7]\nclass = No", fillcolor="#eca06a"] ;
639 -> 640 ;
641 [label="lead_time <= 3.0\ngini = 0.111\nsamples = 17\nvalue = [16, 1]\nclass = No", fillcolor="#e78945"] ;
640 -> 641 ;
642 [label="perf_12_month_avg <= 0.32\ngini = 0.375\nsamples = 4\nvalue = [3, 1]\nclass = No", fillcolor="#eeab7b"] ;
641 -> 642 ;
643 [label="gini = 0.0\nsamples = 2\nvalue = [2, 0]\nclass = No", fillcolor="#e58139"] ;
642 -> 643 ;
644 [label="forecast_6_month <= 6.5\ngini = 0.5\nsamples = 2\nvalue = [1, 1]\nclass = No", fillcolor="#ffffff"] ;
642 -> 644 ;
645 [label="gini = 0.0\nsamples = 1\nvalue = [0, 1]\nclass = Yes", fillcolor="#399de5"] ;
644 -> 645 ;
646 [label="gini = 0.0\nsamples = 1\nvalue = [1, 0]\nclass = No", fillcolor="#e58139"] ;
644 -> 646 ;
647 [label="gini = 0.0\nsamples = 13\nvalue = [13, 0]\nclass = No", fillcolor="#e58139"] ;
641 -> 647 ;
648 [label="forecast_3_month <= 10.0\ngini = 0.444\nsamples = 18\nvalue = [12, 6]\nclass = No", fillcolor="#f2c09c"] ;
640 -> 648 ;
649 [label="pieces_past_due <= 1.5\ngini = 0.408\nsamples = 7\nvalue = [2, 5]\nclass = Yes", fillcolor="#88c4ef"] ;
648 -> 649 ;
650 [label="forecast_6_month <= 8.5\ngini = 0.278\nsamples = 6\nvalue = [1, 5]\nclass = Yes", fillcolor="#61b1ea"] ;
649 -> 650 ;
651 [label="forecast_9_month <= 8.5\ngini = 0.5\nsamples = 2\nvalue = [1, 1]\nclass = No", fillcolor="#ffffff"] ;
650 -> 651 ;
652 [label="gini = 0.0\nsamples = 1\nvalue = [0, 1]\nclass = Yes", fillcolor="#399de5"] ;
651 -> 652 ;
653 [label="gini = 0.0\nsamples = 1\nvalue = [1, 0]\nclass = No", fillcolor="#e58139"] ;
651 -> 653 ;
654 [label="gini = 0.0\nsamples = 4\nvalue = [0, 4]\nclass = Yes", fillcolor="#399de5"] ;
650 -> 654 ;
655 [label="gini = 0.0\nsamples = 1\nvalue = [1, 0]\nclass = No", fillcolor="#e58139"] ;
649 -> 655 ;
656 [label="perf_12_month_avg <= 0.125\ngini = 0.165\nsamples = 11\nvalue = [10, 1]\nclass = No", fillcolor="#e88e4d"] ;
648 -> 656 ;
657 [label="pieces_past_due <= 5.5\ngini = 0.5\nsamples = 2\nvalue = [1, 1]\nclass = No", fillcolor="#ffffff"] ;
656 -> 657 ;
658 [label="gini = 0.0\nsamples = 1\nvalue = [0, 1]\nclass = Yes", fillcolor="#399de5"] ;
657 -> 658 ;
659 [label="gini = 0.0\nsamples = 1\nvalue = [1, 0]\nclass = No", fillcolor="#e58139"] ;
657 -> 659 ;
660 [label="gini = 0.0\nsamples = 9\nvalue = [9, 0]\nclass = No", fillcolor="#e58139"] ;
656 -> 660 ;
661 [label="forecast_6_month <= 5.5\ngini = 0.49\nsamples = 79\nvalue = [45, 34]\nclass = No", fillcolor="#f9e0cf"] ;
639 -> 661 ;
662 [label="gini = 0.0\nsamples = 3\nvalue = [0, 3]\nclass = Yes", fillcolor="#399de5"] ;
661 -> 662 ;
663 [label="lead_time <= 8.5\ngini = 0.483\nsamples = 76\nvalue = [45, 31]\nclass = No", fillcolor="#f7d8c1"] ;
661 -> 663 ;
664 [label="deck_risk_Yes <= 0.5\ngini = 0.499\nsamples = 61\nvalue = [32, 29]\nclass = No", fillcolor="#fdf3ec"] ;
663 -> 664 ;
665 [label="forecast_6_month <= 7.5\ngini = 0.408\nsamples = 14\nvalue = [4, 10]\nclass = Yes", fillcolor="#88c4ef"] ;
664 -> 665 ;
666 [label="gini = 0.0\nsamples = 8\nvalue = [0, 8]\nclass = Yes", fillcolor="#399de5"] ;
665 -> 666 ;
667 [label="forecast_3_month <= 10.5\ngini = 0.444\nsamples = 6\nvalue = [4, 2]\nclass = No", fillcolor="#f2c09c"] ;
665 -> 667 ;
668 [label="gini = 0.0\nsamples = 3\nvalue = [3, 0]\nclass = No", fillcolor="#e58139"] ;
667 -> 668 ;
669 [label="forecast_9_month <= 35.0\ngini = 0.444\nsamples = 3\nvalue = [1, 2]\nclass = Yes", fillcolor="#9ccef2"] ;
667 -> 669 ;
670 [label="gini = 0.0\nsamples = 2\nvalue = [0, 2]\nclass = Yes", fillcolor="#399de5"] ;
669 -> 670 ;
671 [label="gini = 0.0\nsamples = 1\nvalue = [1, 0]\nclass = No", fillcolor="#e58139"] ;
669 -> 671 ;
672 [label="forecast_6_month <= 6.5\ngini = 0.482\nsamples = 47\nvalue = [28, 19]\nclass = No", fillcolor="#f7d7bf"] ;
664 -> 672 ;
673 [label="perf_12_month_avg <= 0.52\ngini = 0.198\nsamples = 9\nvalue = [8, 1]\nclass = No", fillcolor="#e89152"] ;
672 -> 673 ;
674 [label="gini = 0.0\nsamples = 7\nvalue = [7, 0]\nclass = No", fillcolor="#e58139"] ;
673 -> 674 ;
675 [label="gini = 0.5\nsamples = 2\nvalue = [1, 1]\nclass = No", fillcolor="#ffffff"] ;
673 -> 675 ;
676 [label="forecast_9_month <= 7.5\ngini = 0.499\nsamples = 38\nvalue = [20, 18]\nclass = No", fillcolor="#fcf2eb"] ;
672 -> 676 ;
677 [label="perf_6_month_avg <= 0.545\ngini = 0.465\nsamples = 19\nvalue = [7, 12]\nclass = Yes", fillcolor="#acd6f4"] ;
676 -> 677 ;
678 [label="pieces_past_due <= 1.5\ngini = 0.492\nsamples = 16\nvalue = [7, 9]\nclass = Yes", fillcolor="#d3e9f9"] ;
677 -> 678 ;
679 [label="pieces_past_due <= 0.5\ngini = 0.48\nsamples = 15\nvalue = [6, 9]\nclass = Yes", fillcolor="#bddef6"] ;
678 -> 679 ;
680 [label="forecast_3_month <= 5.5\ngini = 0.49\nsamples = 14\nvalue = [6, 8]\nclass = Yes", fillcolor="#cee6f8"] ;
679 -> 680 ;
681 [label="perf_12_month_avg <= 0.385\ngini = 0.497\nsamples = 13\nvalue = [6, 7]\nclass = Yes", fillcolor="#e3f1fb"] ;
680 -> 681 ;
682 [label="lead_time <= 5.0\ngini = 0.469\nsamples = 8\nvalue = [3, 5]\nclass = Yes", fillcolor="#b0d8f5"] ;
681 -> 682 ;
683 [label="gini = 0.0\nsamples = 2\nvalue = [0, 2]\nclass = Yes", fillcolor="#399de5"] ;
682 -> 683 ;
684 [label="perf_12_month_avg <= 0.355\ngini = 0.5\nsamples = 6\nvalue = [3, 3]\nclass = No", fillcolor="#ffffff"] ;
682 -> 684 ;
685 [label="gini = 0.444\nsamples = 3\nvalue = [2, 1]\nclass = No", fillcolor="#f2c09c"] ;
684 -> 685 ;
686 [label="gini = 0.444\nsamples = 3\nvalue = [1, 2]\nclass = Yes", fillcolor="#9ccef2"] ;
684 -> 686 ;
687 [label="perf_12_month_avg <= 0.475\ngini = 0.48\nsamples = 5\nvalue = [3, 2]\nclass = No", fillcolor="#f6d5bd"] ;
681 -> 687 ;
688 [label="gini = 0.0\nsamples = 1\nvalue = [1, 0]\nclass = No", fillcolor="#e58139"] ;
687 -> 688 ;
689 [label="gini = 0.5\nsamples = 4\nvalue = [2, 2]\nclass = No", fillcolor="#ffffff"] ;
687 -> 689 ;
690 [label="gini = 0.0\nsamples = 1\nvalue = [0, 1]\nclass = Yes", fillcolor="#399de5"] ;
680 -> 690 ;
691 [label="gini = 0.0\nsamples = 1\nvalue = [0, 1]\nclass = Yes", fillcolor="#399de5"] ;
679 -> 691 ;
692 [label="gini = 0.0\nsamples = 1\nvalue = [1, 0]\nclass = No", fillcolor="#e58139"] ;
678 -> 692 ;
693 [label="gini = 0.0\nsamples = 3\nvalue = [0, 3]\nclass = Yes", fillcolor="#399de5"] ;
677 -> 693 ;
694 [label="forecast_9_month <= 15.0\ngini = 0.432\nsamples = 19\nvalue = [13, 6]\nclass = No", fillcolor="#f1bb94"] ;
676 -> 694 ;
695 [label="perf_6_month_avg <= 0.4\ngini = 0.278\nsamples = 12\nvalue = [10, 2]\nclass = No", fillcolor="#ea9a61"] ;
694 -> 695 ;
696 [label="gini = 0.0\nsamples = 1\nvalue = [0, 1]\nclass = Yes", fillcolor="#399de5"] ;
695 -> 696 ;
697 [label="lead_time <= 3.0\ngini = 0.165\nsamples = 11\nvalue = [10, 1]\nclass = No", fillcolor="#e88e4d"] ;
695 -> 697 ;
698 [label="gini = 0.0\nsamples = 9\nvalue = [9, 0]\nclass = No", fillcolor="#e58139"] ;
697 -> 698 ;
699 [label="forecast_3_month <= 10.5\ngini = 0.5\nsamples = 2\nvalue = [1, 1]\nclass = No", fillcolor="#ffffff"] ;
697 -> 699 ;
700 [label="gini = 0.0\nsamples = 1\nvalue = [1, 0]\nclass = No", fillcolor="#e58139"] ;
699 -> 700 ;
701 [label="gini = 0.0\nsamples = 1\nvalue = [0, 1]\nclass = Yes", fillcolor="#399de5"] ;
699 -> 701 ;
702 [label="forecast_9_month <= 16.5\ngini = 0.49\nsamples = 7\nvalue = [3, 4]\nclass = Yes", fillcolor="#cee6f8"] ;
694 -> 702 ;
703 [label="gini = 0.0\nsamples = 3\nvalue = [0, 3]\nclass = Yes", fillcolor="#399de5"] ;
702 -> 703 ;
704 [label="perf_12_month_avg <= 0.595\ngini = 0.375\nsamples = 4\nvalue = [3, 1]\nclass = No", fillcolor="#eeab7b"] ;
702 -> 704 ;
705 [label="gini = 0.0\nsamples = 3\nvalue = [3, 0]\nclass = No", fillcolor="#e58139"] ;
704 -> 705 ;
706 [label="gini = 0.0\nsamples = 1\nvalue = [0, 1]\nclass = Yes", fillcolor="#399de5"] ;
704 -> 706 ;
707 [label="forecast_6_month <= 7.5\ngini = 0.231\nsamples = 15\nvalue = [13, 2]\nclass = No", fillcolor="#e99457"] ;
663 -> 707 ;
708 [label="gini = 0.0\nsamples = 10\nvalue = [10, 0]\nclass = No", fillcolor="#e58139"] ;
707 -> 708 ;
709 [label="forecast_6_month <= 10.5\ngini = 0.48\nsamples = 5\nvalue = [3, 2]\nclass = No", fillcolor="#f6d5bd"] ;
707 -> 709 ;
710 [label="forecast_3_month <= 5.5\ngini = 0.444\nsamples = 3\nvalue = [1, 2]\nclass = Yes", fillcolor="#9ccef2"] ;
709 -> 710 ;
711 [label="gini = 0.5\nsamples = 2\nvalue = [1, 1]\nclass = No", fillcolor="#ffffff"] ;
710 -> 711 ;
712 [label="gini = 0.0\nsamples = 1\nvalue = [0, 1]\nclass = Yes", fillcolor="#399de5"] ;
710 -> 712 ;
713 [label="gini = 0.0\nsamples = 2\nvalue = [2, 0]\nclass = No", fillcolor="#e58139"] ;
709 -> 713 ;
714 [label="forecast_6_month <= 6.5\ngini = 0.475\nsamples = 18\nvalue = [7, 11]\nclass = Yes", fillcolor="#b7dbf6"] ;
638 -> 714 ;
715 [label="gini = 0.0\nsamples = 6\nvalue = [0, 6]\nclass = Yes", fillcolor="#399de5"] ;
714 -> 715 ;
716 [label="forecast_6_month <= 11.5\ngini = 0.486\nsamples = 12\nvalue = [7, 5]\nclass = No", fillcolor="#f8dbc6"] ;
714 -> 716 ;
717 [label="gini = 0.0\nsamples = 7\nvalue = [7, 0]\nclass = No", fillcolor="#e58139"] ;
716 -> 717 ;
718 [label="gini = 0.0\nsamples = 5\nvalue = [0, 5]\nclass = Yes", fillcolor="#399de5"] ;
716 -> 718 ;
719 [label="gini = 0.0\nsamples = 4\nvalue = [4, 0]\nclass = No", fillcolor="#e58139"] ;
587 -> 719 ;
720 [label="deck_risk_Yes <= 0.5\ngini = 0.438\nsamples = 37\nvalue = [12, 25]\nclass = Yes", fillcolor="#98ccf1"] ;
550 -> 720 ;
721 [label="lead_time <= 7.0\ngini = 0.124\nsamples = 15\nvalue = [1, 14]\nclass = Yes", fillcolor="#47a4e7"] ;
720 -> 721 ;
722 [label="gini = 0.0\nsamples = 7\nvalue = [0, 7]\nclass = Yes", fillcolor="#399de5"] ;
721 -> 722 ;
723 [label="forecast_9_month <= 5.5\ngini = 0.219\nsamples = 8\nvalue = [1, 7]\nclass = Yes", fillcolor="#55abe9"] ;
721 -> 723 ;
724 [label="gini = 0.0\nsamples = 4\nvalue = [0, 4]\nclass = Yes", fillcolor="#399de5"] ;
723 -> 724 ;
725 [label="perf_6_month_avg <= 0.625\ngini = 0.375\nsamples = 4\nvalue = [1, 3]\nclass = Yes", fillcolor="#7bbeee"] ;
723 -> 725 ;
726 [label="gini = 0.0\nsamples = 1\nvalue = [0, 1]\nclass = Yes", fillcolor="#399de5"] ;
725 -> 726 ;
727 [label="gini = 0.444\nsamples = 3\nvalue = [1, 2]\nclass = Yes", fillcolor="#9ccef2"] ;
725 -> 727 ;
728 [label="forecast_6_month <= 11.5\ngini = 0.5\nsamples = 22\nvalue = [11, 11]\nclass = No", fillcolor="#ffffff"] ;
720 -> 728 ;
729 [label="perf_12_month_avg <= 0.695\ngini = 0.488\nsamples = 19\nvalue = [11, 8]\nclass = No", fillcolor="#f8ddc9"] ;
728 -> 729 ;
730 [label="gini = 0.0\nsamples = 3\nvalue = [3, 0]\nclass = No", fillcolor="#e58139"] ;
729 -> 730 ;
731 [label="forecast_3_month <= 4.5\ngini = 0.5\nsamples = 16\nvalue = [8, 8]\nclass = No", fillcolor="#ffffff"] ;
729 -> 731 ;
732 [label="gini = 0.0\nsamples = 2\nvalue = [2, 0]\nclass = No", fillcolor="#e58139"] ;
731 -> 732 ;
733 [label="forecast_6_month <= 6.0\ngini = 0.49\nsamples = 14\nvalue = [6, 8]\nclass = Yes", fillcolor="#cee6f8"] ;
731 -> 733 ;
734 [label="gini = 0.0\nsamples = 3\nvalue = [0, 3]\nclass = Yes", fillcolor="#399de5"] ;
733 -> 734 ;
735 [label="pieces_past_due <= 3.0\ngini = 0.496\nsamples = 11\nvalue = [6, 5]\nclass = No", fillcolor="#fbeade"] ;
733 -> 735 ;
736 [label="perf_12_month_avg <= 0.725\ngini = 0.48\nsamples = 10\nvalue = [6, 4]\nclass = No", fillcolor="#f6d5bd"] ;
735 -> 736 ;
737 [label="forecast_6_month <= 7.5\ngini = 0.444\nsamples = 9\nvalue = [6, 3]\nclass = No", fillcolor="#f2c09c"] ;
736 -> 737 ;
738 [label="lead_time <= 7.0\ngini = 0.278\nsamples = 6\nvalue = [5, 1]\nclass = No", fillcolor="#ea9a61"] ;
737 -> 738 ;
739 [label="gini = 0.0\nsamples = 2\nvalue = [2, 0]\nclass = No", fillcolor="#e58139"] ;
738 -> 739 ;
740 [label="gini = 0.375\nsamples = 4\nvalue = [3, 1]\nclass = No", fillcolor="#eeab7b"] ;
738 -> 740 ;
741 [label="gini = 0.444\nsamples = 3\nvalue = [1, 2]\nclass = Yes", fillcolor="#9ccef2"] ;
737 -> 741 ;
742 [label="gini = 0.0\nsamples = 1\nvalue = [0, 1]\nclass = Yes", fillcolor="#399de5"] ;
736 -> 742 ;
743 [label="gini = 0.0\nsamples = 1\nvalue = [0, 1]\nclass = Yes", fillcolor="#399de5"] ;
735 -> 743 ;
744 [label="gini = 0.0\nsamples = 3\nvalue = [0, 3]\nclass = Yes", fillcolor="#399de5"] ;
728 -> 744 ;
745 [label="perf_12_month_avg <= 0.535\ngini = 0.468\nsamples = 166\nvalue = [62, 104]\nclass = Yes", fillcolor="#afd7f4"] ;
549 -> 745 ;
746 [label="perf_12_month_avg <= -49.5\ngini = 0.431\nsamples = 140\nvalue = [44, 96]\nclass = Yes", fillcolor="#94caf1"] ;
745 -> 746 ;
747 [label="gini = 0.0\nsamples = 6\nvalue = [6, 0]\nclass = No", fillcolor="#e58139"] ;
746 -> 747 ;
748 [label="lead_time <= 2.5\ngini = 0.406\nsamples = 134\nvalue = [38, 96]\nclass = Yes", fillcolor="#87c4ef"] ;
746 -> 748 ;
749 [label="stop_auto_buy_Yes <= 0.5\ngini = 0.381\nsamples = 125\nvalue = [32, 93]\nclass = Yes", fillcolor="#7dbfee"] ;
748 -> 749 ;
750 [label="gini = 0.0\nsamples = 2\nvalue = [2, 0]\nclass = No", fillcolor="#e58139"] ;
749 -> 750 ;
751 [label="forecast_3_month <= 10.5\ngini = 0.369\nsamples = 123\nvalue = [30, 93]\nclass = Yes", fillcolor="#79bded"] ;
749 -> 751 ;
752 [label="perf_6_month_avg <= 0.555\ngini = 0.351\nsamples = 119\nvalue = [27, 92]\nclass = Yes", fillcolor="#73baed"] ;
751 -> 752 ;
753 [label="forecast_6_month <= 7.5\ngini = 0.344\nsamples = 118\nvalue = [26, 92]\nclass = Yes", fillcolor="#71b9ec"] ;
752 -> 753 ;
754 [label="perf_12_month_avg <= 0.39\ngini = 0.401\nsamples = 72\nvalue = [20, 52]\nclass = Yes", fillcolor="#85c3ef"] ;
753 -> 754 ;
755 [label="forecast_6_month <= 3.5\ngini = 0.382\nsamples = 70\nvalue = [18, 52]\nclass = Yes", fillcolor="#7ebfee"] ;
754 -> 755 ;
756 [label="perf_12_month_avg <= 0.35\ngini = 0.111\nsamples = 17\nvalue = [1, 16]\nclass = Yes", fillcolor="#45a3e7"] ;
755 -> 756 ;
757 [label="gini = 0.0\nsamples = 12\nvalue = [0, 12]\nclass = Yes", fillcolor="#399de5"] ;
756 -> 757 ;
758 [label="perf_6_month_avg <= 0.395\ngini = 0.32\nsamples = 5\nvalue = [1, 4]\nclass = Yes", fillcolor="#6ab6ec"] ;
756 -> 758 ;
759 [label="gini = 0.5\nsamples = 2\nvalue = [1, 1]\nclass = No", fillcolor="#ffffff"] ;
758 -> 759 ;
760 [label="gini = 0.0\nsamples = 3\nvalue = [0, 3]\nclass = Yes", fillcolor="#399de5"] ;
758 -> 760 ;
761 [label="forecast_9_month <= 4.5\ngini = 0.436\nsamples = 53\nvalue = [17, 36]\nclass = Yes", fillcolor="#96cbf1"] ;
755 -> 761 ;
762 [label="perf_12_month_avg <= 0.005\ngini = 0.494\nsamples = 9\nvalue = [5, 4]\nclass = No", fillcolor="#fae6d7"] ;
761 -> 762 ;
763 [label="gini = 0.5\nsamples = 8\nvalue = [4, 4]\nclass = No", fillcolor="#ffffff"] ;
762 -> 763 ;
764 [label="gini = 0.0\nsamples = 1\nvalue = [1, 0]\nclass = No", fillcolor="#e58139"] ;
762 -> 764 ;
765 [label="perf_12_month_avg <= 0.23\ngini = 0.397\nsamples = 44\nvalue = [12, 32]\nclass = Yes", fillcolor="#83c2ef"] ;
761 -> 765 ;
766 [label="perf_12_month_avg <= 0.1\ngini = 0.287\nsamples = 23\nvalue = [4, 19]\nclass = Yes", fillcolor="#63b2ea"] ;
765 -> 766 ;
767 [label="gini = 0.308\nsamples = 21\nvalue = [4, 17]\nclass = Yes", fillcolor="#68b4eb"] ;
766 -> 767 ;
768 [label="gini = 0.0\nsamples = 2\nvalue = [0, 2]\nclass = Yes", fillcolor="#399de5"] ;
766 -> 768 ;
769 [label="perf_6_month_avg <= 0.32\ngini = 0.472\nsamples = 21\nvalue = [8, 13]\nclass = Yes", fillcolor="#b3d9f5"] ;
765 -> 769 ;
770 [label="gini = 0.0\nsamples = 2\nvalue = [2, 0]\nclass = No", fillcolor="#e58139"] ;
769 -> 770 ;
771 [label="forecast_3_month <= 4.5\ngini = 0.432\nsamples = 19\nvalue = [6, 13]\nclass = Yes", fillcolor="#94caf1"] ;
769 -> 771 ;
772 [label="perf_6_month_avg <= 0.395\ngini = 0.401\nsamples = 18\nvalue = [5, 13]\nclass = Yes", fillcolor="#85c3ef"] ;
771 -> 772 ;
773 [label="gini = 0.0\nsamples = 3\nvalue = [0, 3]\nclass = Yes", fillcolor="#399de5"] ;
772 -> 773 ;
774 [label="perf_6_month_avg <= 0.44\ngini = 0.444\nsamples = 15\nvalue = [5, 10]\nclass = Yes", fillcolor="#9ccef2"] ;
772 -> 774 ;
775 [label="pieces_past_due <= 1.0\ngini = 0.473\nsamples = 13\nvalue = [5, 8]\nclass = Yes", fillcolor="#b5daf5"] ;
774 -> 775 ;
776 [label="deck_risk_Yes <= 0.5\ngini = 0.496\nsamples = 11\nvalue = [5, 6]\nclass = Yes", fillcolor="#deeffb"] ;
775 -> 776 ;
777 [label="gini = 0.5\nsamples = 10\nvalue = [5, 5]\nclass = No", fillcolor="#ffffff"] ;
776 -> 777 ;
778 [label="gini = 0.0\nsamples = 1\nvalue = [0, 1]\nclass = Yes", fillcolor="#399de5"] ;
776 -> 778 ;
779 [label="gini = 0.0\nsamples = 2\nvalue = [0, 2]\nclass = Yes", fillcolor="#399de5"] ;
775 -> 779 ;
780 [label="gini = 0.0\nsamples = 2\nvalue = [0, 2]\nclass = Yes", fillcolor="#399de5"] ;
774 -> 780 ;
781 [label="gini = 0.0\nsamples = 1\nvalue = [1, 0]\nclass = No", fillcolor="#e58139"] ;
771 -> 781 ;
782 [label="gini = 0.0\nsamples = 2\nvalue = [2, 0]\nclass = No", fillcolor="#e58139"] ;
754 -> 782 ;
783 [label="pieces_past_due <= 6.5\ngini = 0.227\nsamples = 46\nvalue = [6, 40]\nclass = Yes", fillcolor="#57ace9"] ;
753 -> 783 ;
784 [label="perf_6_month_avg <= 0.445\ngini = 0.201\nsamples = 44\nvalue = [5, 39]\nclass = Yes", fillcolor="#52aae8"] ;
783 -> 784 ;
785 [label="forecast_3_month <= 5.5\ngini = 0.149\nsamples = 37\nvalue = [3, 34]\nclass = Yes", fillcolor="#4aa6e7"] ;
784 -> 785 ;
786 [label="perf_12_month_avg <= 0.225\ngini = 0.32\nsamples = 15\nvalue = [3, 12]\nclass = Yes", fillcolor="#6ab6ec"] ;
785 -> 786 ;
787 [label="gini = 0.0\nsamples = 2\nvalue = [2, 0]\nclass = No", fillcolor="#e58139"] ;
786 -> 787 ;
788 [label="forecast_9_month <= 8.5\ngini = 0.142\nsamples = 13\nvalue = [1, 12]\nclass = Yes", fillcolor="#49a5e7"] ;
786 -> 788 ;
789 [label="perf_6_month_avg <= 0.395\ngini = 0.278\nsamples = 6\nvalue = [1, 5]\nclass = Yes", fillcolor="#61b1ea"] ;
788 -> 789 ;
790 [label="gini = 0.0\nsamples = 4\nvalue = [0, 4]\nclass = Yes", fillcolor="#399de5"] ;
789 -> 790 ;
791 [label="gini = 0.5\nsamples = 2\nvalue = [1, 1]\nclass = No", fillcolor="#ffffff"] ;
789 -> 791 ;
792 [label="gini = 0.0\nsamples = 7\nvalue = [0, 7]\nclass = Yes", fillcolor="#399de5"] ;
788 -> 792 ;
793 [label="gini = 0.0\nsamples = 22\nvalue = [0, 22]\nclass = Yes", fillcolor="#399de5"] ;
785 -> 793 ;
794 [label="perf_12_month_avg <= 0.46\ngini = 0.408\nsamples = 7\nvalue = [2, 5]\nclass = Yes", fillcolor="#88c4ef"] ;
784 -> 794 ;
795 [label="gini = 0.0\nsamples = 2\nvalue = [2, 0]\nclass = No", fillcolor="#e58139"] ;
794 -> 795 ;
796 [label="gini = 0.0\nsamples = 5\nvalue = [0, 5]\nclass = Yes", fillcolor="#399de5"] ;
794 -> 796 ;
797 [label="perf_12_month_avg <= 0.315\ngini = 0.5\nsamples = 2\nvalue = [1, 1]\nclass = No", fillcolor="#ffffff"] ;
783 -> 797 ;
798 [label="gini = 0.0\nsamples = 1\nvalue = [1, 0]\nclass = No", fillcolor="#e58139"] ;
797 -> 798 ;
799 [label="gini = 0.0\nsamples = 1\nvalue = [0, 1]\nclass = Yes", fillcolor="#399de5"] ;
797 -> 799 ;
800 [label="gini = 0.0\nsamples = 1\nvalue = [1, 0]\nclass = No", fillcolor="#e58139"] ;
752 -> 800 ;
801 [label="min_bank <= 0.5\ngini = 0.375\nsamples = 4\nvalue = [3, 1]\nclass = No", fillcolor="#eeab7b"] ;
751 -> 801 ;
802 [label="gini = 0.0\nsamples = 3\nvalue = [3, 0]\nclass = No", fillcolor="#e58139"] ;
801 -> 802 ;
803 [label="gini = 0.0\nsamples = 1\nvalue = [0, 1]\nclass = Yes", fillcolor="#399de5"] ;
801 -> 803 ;
804 [label="forecast_3_month <= 4.5\ngini = 0.444\nsamples = 9\nvalue = [6, 3]\nclass = No", fillcolor="#f2c09c"] ;
748 -> 804 ;
805 [label="forecast_9_month <= 3.5\ngini = 0.444\nsamples = 3\nvalue = [1, 2]\nclass = Yes", fillcolor="#9ccef2"] ;
804 -> 805 ;
806 [label="gini = 0.0\nsamples = 1\nvalue = [1, 0]\nclass = No", fillcolor="#e58139"] ;
805 -> 806 ;
807 [label="gini = 0.0\nsamples = 2\nvalue = [0, 2]\nclass = Yes", fillcolor="#399de5"] ;
805 -> 807 ;
808 [label="perf_12_month_avg <= 0.375\ngini = 0.278\nsamples = 6\nvalue = [5, 1]\nclass = No", fillcolor="#ea9a61"] ;
804 -> 808 ;
809 [label="gini = 0.0\nsamples = 4\nvalue = [4, 0]\nclass = No", fillcolor="#e58139"] ;
808 -> 809 ;
810 [label="forecast_3_month <= 9.0\ngini = 0.5\nsamples = 2\nvalue = [1, 1]\nclass = No", fillcolor="#ffffff"] ;
808 -> 810 ;
811 [label="gini = 0.0\nsamples = 1\nvalue = [0, 1]\nclass = Yes", fillcolor="#399de5"] ;
810 -> 811 ;
812 [label="gini = 0.0\nsamples = 1\nvalue = [1, 0]\nclass = No", fillcolor="#e58139"] ;
810 -> 812 ;
813 [label="forecast_3_month <= 13.0\ngini = 0.426\nsamples = 26\nvalue = [18, 8]\nclass = No", fillcolor="#f1b991"] ;
745 -> 813 ;
814 [label="forecast_3_month <= 9.5\ngini = 0.298\nsamples = 22\nvalue = [18, 4]\nclass = No", fillcolor="#eb9d65"] ;
813 -> 814 ;
815 [label="gini = 0.0\nsamples = 11\nvalue = [11, 0]\nclass = No", fillcolor="#e58139"] ;
814 -> 815 ;
816 [label="perf_6_month_avg <= 0.615\ngini = 0.463\nsamples = 11\nvalue = [7, 4]\nclass = No", fillcolor="#f4c9aa"] ;
814 -> 816 ;
817 [label="min_bank <= 0.5\ngini = 0.245\nsamples = 7\nvalue = [6, 1]\nclass = No", fillcolor="#e9965a"] ;
816 -> 817 ;
818 [label="gini = 0.0\nsamples = 5\nvalue = [5, 0]\nclass = No", fillcolor="#e58139"] ;
817 -> 818 ;
819 [label="perf_12_month_avg <= 0.645\ngini = 0.5\nsamples = 2\nvalue = [1, 1]\nclass = No", fillcolor="#ffffff"] ;
817 -> 819 ;
820 [label="gini = 0.0\nsamples = 1\nvalue = [0, 1]\nclass = Yes", fillcolor="#399de5"] ;
819 -> 820 ;
821 [label="gini = 0.0\nsamples = 1\nvalue = [1, 0]\nclass = No", fillcolor="#e58139"] ;
819 -> 821 ;
822 [label="forecast_9_month <= 25.5\ngini = 0.375\nsamples = 4\nvalue = [1, 3]\nclass = Yes", fillcolor="#7bbeee"] ;
816 -> 822 ;
823 [label="gini = 0.0\nsamples = 3\nvalue = [0, 3]\nclass = Yes", fillcolor="#399de5"] ;
822 -> 823 ;
824 [label="gini = 0.0\nsamples = 1\nvalue = [1, 0]\nclass = No", fillcolor="#e58139"] ;
822 -> 824 ;
825 [label="gini = 0.0\nsamples = 4\nvalue = [0, 4]\nclass = Yes", fillcolor="#399de5"] ;
813 -> 825 ;
826 [label="forecast_3_month <= 5.5\ngini = 0.436\nsamples = 555\nvalue = [377, 178]\nclass = No", fillcolor="#f1bc96"] ;
548 -> 826 ;
827 [label="lead_time <= 2.5\ngini = 0.312\nsamples = 258\nvalue = [208, 50]\nclass = No", fillcolor="#eb9f69"] ;
826 -> 827 ;
828 [label="in_transit_qty <= 0.5\ngini = 0.452\nsamples = 116\nvalue = [76, 40]\nclass = No", fillcolor="#f3c3a1"] ;
827 -> 828 ;
829 [label="forecast_3_month <= 2.5\ngini = 0.478\nsamples = 101\nvalue = [61, 40]\nclass = No", fillcolor="#f6d4bb"] ;
828 -> 829 ;
830 [label="perf_6_month_avg <= 0.925\ngini = 0.346\nsamples = 18\nvalue = [4, 14]\nclass = Yes", fillcolor="#72b9ec"] ;
829 -> 830 ;
831 [label="ppap_risk_Yes <= 0.5\ngini = 0.231\nsamples = 15\nvalue = [2, 13]\nclass = Yes", fillcolor="#57ace9"] ;
830 -> 831 ;
832 [label="gini = 0.0\nsamples = 1\nvalue = [1, 0]\nclass = No", fillcolor="#e58139"] ;
831 -> 832 ;
833 [label="deck_risk_Yes <= 0.5\ngini = 0.133\nsamples = 14\nvalue = [1, 13]\nclass = Yes", fillcolor="#48a5e7"] ;
831 -> 833 ;
834 [label="gini = 0.0\nsamples = 7\nvalue = [0, 7]\nclass = Yes", fillcolor="#399de5"] ;
833 -> 834 ;
835 [label="min_bank <= 0.5\ngini = 0.245\nsamples = 7\nvalue = [1, 6]\nclass = Yes", fillcolor="#5aade9"] ;
833 -> 835 ;
836 [label="perf_12_month_avg <= 0.8\ngini = 0.444\nsamples = 3\nvalue = [1, 2]\nclass = Yes", fillcolor="#9ccef2"] ;
835 -> 836 ;
837 [label="gini = 0.0\nsamples = 2\nvalue = [0, 2]\nclass = Yes", fillcolor="#399de5"] ;
836 -> 837 ;
838 [label="gini = 0.0\nsamples = 1\nvalue = [1, 0]\nclass = No", fillcolor="#e58139"] ;
836 -> 838 ;
839 [label="gini = 0.0\nsamples = 4\nvalue = [0, 4]\nclass = Yes", fillcolor="#399de5"] ;
835 -> 839 ;
840 [label="perf_12_month_avg <= 0.975\ngini = 0.444\nsamples = 3\nvalue = [2, 1]\nclass = No", fillcolor="#f2c09c"] ;
830 -> 840 ;
841 [label="gini = 0.0\nsamples = 2\nvalue = [2, 0]\nclass = No", fillcolor="#e58139"] ;
840 -> 841 ;
842 [label="gini = 0.0\nsamples = 1\nvalue = [0, 1]\nclass = Yes", fillcolor="#399de5"] ;
840 -> 842 ;
843 [label="forecast_6_month <= 3.5\ngini = 0.43\nsamples = 83\nvalue = [57, 26]\nclass = No", fillcolor="#f1ba93"] ;
829 -> 843 ;
844 [label="gini = 0.0\nsamples = 12\nvalue = [12, 0]\nclass = No", fillcolor="#e58139"] ;
843 -> 844 ;
845 [label="forecast_3_month <= 3.5\ngini = 0.464\nsamples = 71\nvalue = [45, 26]\nclass = No", fillcolor="#f4caab"] ;
843 -> 845 ;
846 [label="gini = 0.0\nsamples = 3\nvalue = [0, 3]\nclass = Yes", fillcolor="#399de5"] ;
845 -> 846 ;
847 [label="perf_6_month_avg <= 0.785\ngini = 0.448\nsamples = 68\nvalue = [45, 23]\nclass = No", fillcolor="#f2c19e"] ;
845 -> 847 ;
848 [label="forecast_3_month <= 4.5\ngini = 0.133\nsamples = 14\nvalue = [13, 1]\nclass = No", fillcolor="#e78b48"] ;
847 -> 848 ;
849 [label="gini = 0.0\nsamples = 9\nvalue = [9, 0]\nclass = No", fillcolor="#e58139"] ;
848 -> 849 ;
850 [label="perf_12_month_avg <= 0.67\ngini = 0.32\nsamples = 5\nvalue = [4, 1]\nclass = No", fillcolor="#eca06a"] ;
848 -> 850 ;
851 [label="gini = 0.5\nsamples = 2\nvalue = [1, 1]\nclass = No", fillcolor="#ffffff"] ;
850 -> 851 ;
852 [label="gini = 0.0\nsamples = 3\nvalue = [3, 0]\nclass = No", fillcolor="#e58139"] ;
850 -> 852 ;
853 [label="forecast_9_month <= 21.5\ngini = 0.483\nsamples = 54\nvalue = [32, 22]\nclass = No", fillcolor="#f7d8c1"] ;
847 -> 853 ;
854 [label="ppap_risk_Yes <= 0.5\ngini = 0.499\nsamples = 46\nvalue = [24, 22]\nclass = No", fillcolor="#fdf5ef"] ;
853 -> 854 ;
855 [label="perf_6_month_avg <= 0.995\ngini = 0.494\nsamples = 36\nvalue = [16, 20]\nclass = Yes", fillcolor="#d7ebfa"] ;
854 -> 855 ;
856 [label="perf_6_month_avg <= 0.955\ngini = 0.484\nsamples = 34\nvalue = [14, 20]\nclass = Yes", fillcolor="#c4e2f7"] ;
855 -> 856 ;
857 [label="perf_12_month_avg <= 0.89\ngini = 0.499\nsamples = 21\nvalue = [11, 10]\nclass = No", fillcolor="#fdf4ed"] ;
856 -> 857 ;
858 [label="perf_6_month_avg <= 0.825\ngini = 0.484\nsamples = 17\nvalue = [7, 10]\nclass = Yes", fillcolor="#c4e2f7"] ;
857 -> 858 ;
